tree
version=v2
num_class=1
num_tree_per_iteration=1
label_index=0
max_feature_idx=2047
objective=binary sigmoid:1
feature_names=0 1 2 3 4 5 6 7 8 9 10 11 12 13 14 15 16 17 18 19 20 21 22 23 24 25 26 27 28 29 30 31 32 33 34 35 36 37 38 39 40 41 42 43 44 45 46 47 48 49 50 51 52 53 54 55 56 57 58 59 60 61 62 63 64 65 66 67 68 69 70 71 72 73 74 75 76 77 78 79 80 81 82 83 84 85 86 87 88 89 90 91 92 93 94 95 96 97 98 99 100 101 102 103 104 105 106 107 108 109 110 111 112 113 114 115 116 117 118 119 120 121 122 123 124 125 126 127 128 129 130 131 132 133 134 135 136 137 138 139 140 141 142 143 144 145 146 147 148 149 150 151 152 153 154 155 156 157 158 159 160 161 162 163 164 165 166 167 168 169 170 171 172 173 174 175 176 177 178 179 180 181 182 183 184 185 186 187 188 189 190 191 192 193 194 195 196 197 198 199 200 201 202 203 204 205 206 207 208 209 210 211 212 213 214 215 216 217 218 219 220 221 222 223 224 225 226 227 228 229 230 231 232 233 234 235 236 237 238 239 240 241 242 243 244 245 246 247 248 249 250 251 252 253 254 255 256 257 258 259 260 261 262 263 264 265 266 267 268 269 270 271 272 273 274 275 276 277 278 279 280 281 282 283 284 285 286 287 288 289 290 291 292 293 294 295 296 297 298 299 300 301 302 303 304 305 306 307 308 309 310 311 312 313 314 315 316 317 318 319 320 321 322 323 324 325 326 327 328 329 330 331 332 333 334 335 336 337 338 339 340 341 342 343 344 345 346 347 348 349 350 351 352 353 354 355 356 357 358 359 360 361 362 363 364 365 366 367 368 369 370 371 372 373 374 375 376 377 378 379 380 381 382 383 384 385 386 387 388 389 390 391 392 393 394 395 396 397 398 399 400 401 402 403 404 405 406 407 408 409 410 411 412 413 414 415 416 417 418 419 420 421 422 423 424 425 426 427 428 429 430 431 432 433 434 435 436 437 438 439 440 441 442 443 444 445 446 447 448 449 450 451 452 453 454 455 456 457 458 459 460 461 462 463 464 465 466 467 468 469 470 471 472 473 474 475 476 477 478 479 480 481 482 483 484 485 486 487 488 489 490 491 492 493 494 495 496 497 498 499 500 501 502 503 504 505 506 507 508 509 510 511 512 513 514 515 516 517 518 519 520 521 522 523 524 525 526 527 528 529 530 531 532 533 534 535 536 537 538 539 540 541 542 543 544 545 546 547 548 549 550 551 552 553 554 555 556 557 558 559 560 561 562 563 564 565 566 567 568 569 570 571 572 573 574 575 576 577 578 579 580 581 582 583 584 585 586 587 588 589 590 591 592 593 594 595 596 597 598 599 600 601 602 603 604 605 606 607 608 609 610 611 612 613 614 615 616 617 618 619 620 621 622 623 624 625 626 627 628 629 630 631 632 633 634 635 636 637 638 639 640 641 642 643 644 645 646 647 648 649 650 651 652 653 654 655 656 657 658 659 660 661 662 663 664 665 666 667 668 669 670 671 672 673 674 675 676 677 678 679 680 681 682 683 684 685 686 687 688 689 690 691 692 693 694 695 696 697 698 699 700 701 702 703 704 705 706 707 708 709 710 711 712 713 714 715 716 717 718 719 720 721 722 723 724 725 726 727 728 729 730 731 732 733 734 735 736 737 738 739 740 741 742 743 744 745 746 747 748 749 750 751 752 753 754 755 756 757 758 759 760 761 762 763 764 765 766 767 768 769 770 771 772 773 774 775 776 777 778 779 780 781 782 783 784 785 786 787 788 789 790 791 792 793 794 795 796 797 798 799 800 801 802 803 804 805 806 807 808 809 810 811 812 813 814 815 816 817 818 819 820 821 822 823 824 825 826 827 828 829 830 831 832 833 834 835 836 837 838 839 840 841 842 843 844 845 846 847 848 849 850 851 852 853 854 855 856 857 858 859 860 861 862 863 864 865 866 867 868 869 870 871 872 873 874 875 876 877 878 879 880 881 882 883 884 885 886 887 888 889 890 891 892 893 894 895 896 897 898 899 900 901 902 903 904 905 906 907 908 909 910 911 912 913 914 915 916 917 918 919 920 921 922 923 924 925 926 927 928 929 930 931 932 933 934 935 936 937 938 939 940 941 942 943 944 945 946 947 948 949 950 951 952 953 954 955 956 957 958 959 960 961 962 963 964 965 966 967 968 969 970 971 972 973 974 975 976 977 978 979 980 981 982 983 984 985 986 987 988 989 990 991 992 993 994 995 996 997 998 999 1000 1001 1002 1003 1004 1005 1006 1007 1008 1009 1010 1011 1012 1013 1014 1015 1016 1017 1018 1019 1020 1021 1022 1023 1024 1025 1026 1027 1028 1029 1030 1031 1032 1033 1034 1035 1036 1037 1038 1039 1040 1041 1042 1043 1044 1045 1046 1047 1048 1049 1050 1051 1052 1053 1054 1055 1056 1057 1058 1059 1060 1061 1062 1063 1064 1065 1066 1067 1068 1069 1070 1071 1072 1073 1074 1075 1076 1077 1078 1079 1080 1081 1082 1083 1084 1085 1086 1087 1088 1089 1090 1091 1092 1093 1094 1095 1096 1097 1098 1099 1100 1101 1102 1103 1104 1105 1106 1107 1108 1109 1110 1111 1112 1113 1114 1115 1116 1117 1118 1119 1120 1121 1122 1123 1124 1125 1126 1127 1128 1129 1130 1131 1132 1133 1134 1135 1136 1137 1138 1139 1140 1141 1142 1143 1144 1145 1146 1147 1148 1149 1150 1151 1152 1153 1154 1155 1156 1157 1158 1159 1160 1161 1162 1163 1164 1165 1166 1167 1168 1169 1170 1171 1172 1173 1174 1175 1176 1177 1178 1179 1180 1181 1182 1183 1184 1185 1186 1187 1188 1189 1190 1191 1192 1193 1194 1195 1196 1197 1198 1199 1200 1201 1202 1203 1204 1205 1206 1207 1208 1209 1210 1211 1212 1213 1214 1215 1216 1217 1218 1219 1220 1221 1222 1223 1224 1225 1226 1227 1228 1229 1230 1231 1232 1233 1234 1235 1236 1237 1238 1239 1240 1241 1242 1243 1244 1245 1246 1247 1248 1249 1250 1251 1252 1253 1254 1255 1256 1257 1258 1259 1260 1261 1262 1263 1264 1265 1266 1267 1268 1269 1270 1271 1272 1273 1274 1275 1276 1277 1278 1279 1280 1281 1282 1283 1284 1285 1286 1287 1288 1289 1290 1291 1292 1293 1294 1295 1296 1297 1298 1299 1300 1301 1302 1303 1304 1305 1306 1307 1308 1309 1310 1311 1312 1313 1314 1315 1316 1317 1318 1319 1320 1321 1322 1323 1324 1325 1326 1327 1328 1329 1330 1331 1332 1333 1334 1335 1336 1337 1338 1339 1340 1341 1342 1343 1344 1345 1346 1347 1348 1349 1350 1351 1352 1353 1354 1355 1356 1357 1358 1359 1360 1361 1362 1363 1364 1365 1366 1367 1368 1369 1370 1371 1372 1373 1374 1375 1376 1377 1378 1379 1380 1381 1382 1383 1384 1385 1386 1387 1388 1389 1390 1391 1392 1393 1394 1395 1396 1397 1398 1399 1400 1401 1402 1403 1404 1405 1406 1407 1408 1409 1410 1411 1412 1413 1414 1415 1416 1417 1418 1419 1420 1421 1422 1423 1424 1425 1426 1427 1428 1429 1430 1431 1432 1433 1434 1435 1436 1437 1438 1439 1440 1441 1442 1443 1444 1445 1446 1447 1448 1449 1450 1451 1452 1453 1454 1455 1456 1457 1458 1459 1460 1461 1462 1463 1464 1465 1466 1467 1468 1469 1470 1471 1472 1473 1474 1475 1476 1477 1478 1479 1480 1481 1482 1483 1484 1485 1486 1487 1488 1489 1490 1491 1492 1493 1494 1495 1496 1497 1498 1499 1500 1501 1502 1503 1504 1505 1506 1507 1508 1509 1510 1511 1512 1513 1514 1515 1516 1517 1518 1519 1520 1521 1522 1523 1524 1525 1526 1527 1528 1529 1530 1531 1532 1533 1534 1535 1536 1537 1538 1539 1540 1541 1542 1543 1544 1545 1546 1547 1548 1549 1550 1551 1552 1553 1554 1555 1556 1557 1558 1559 1560 1561 1562 1563 1564 1565 1566 1567 1568 1569 1570 1571 1572 1573 1574 1575 1576 1577 1578 1579 1580 1581 1582 1583 1584 1585 1586 1587 1588 1589 1590 1591 1592 1593 1594 1595 1596 1597 1598 1599 1600 1601 1602 1603 1604 1605 1606 1607 1608 1609 1610 1611 1612 1613 1614 1615 1616 1617 1618 1619 1620 1621 1622 1623 1624 1625 1626 1627 1628 1629 1630 1631 1632 1633 1634 1635 1636 1637 1638 1639 1640 1641 1642 1643 1644 1645 1646 1647 1648 1649 1650 1651 1652 1653 1654 1655 1656 1657 1658 1659 1660 1661 1662 1663 1664 1665 1666 1667 1668 1669 1670 1671 1672 1673 1674 1675 1676 1677 1678 1679 1680 1681 1682 1683 1684 1685 1686 1687 1688 1689 1690 1691 1692 1693 1694 1695 1696 1697 1698 1699 1700 1701 1702 1703 1704 1705 1706 1707 1708 1709 1710 1711 1712 1713 1714 1715 1716 1717 1718 1719 1720 1721 1722 1723 1724 1725 1726 1727 1728 1729 1730 1731 1732 1733 1734 1735 1736 1737 1738 1739 1740 1741 1742 1743 1744 1745 1746 1747 1748 1749 1750 1751 1752 1753 1754 1755 1756 1757 1758 1759 1760 1761 1762 1763 1764 1765 1766 1767 1768 1769 1770 1771 1772 1773 1774 1775 1776 1777 1778 1779 1780 1781 1782 1783 1784 1785 1786 1787 1788 1789 1790 1791 1792 1793 1794 1795 1796 1797 1798 1799 1800 1801 1802 1803 1804 1805 1806 1807 1808 1809 1810 1811 1812 1813 1814 1815 1816 1817 1818 1819 1820 1821 1822 1823 1824 1825 1826 1827 1828 1829 1830 1831 1832 1833 1834 1835 1836 1837 1838 1839 1840 1841 1842 1843 1844 1845 1846 1847 1848 1849 1850 1851 1852 1853 1854 1855 1856 1857 1858 1859 1860 1861 1862 1863 1864 1865 1866 1867 1868 1869 1870 1871 1872 1873 1874 1875 1876 1877 1878 1879 1880 1881 1882 1883 1884 1885 1886 1887 1888 1889 1890 1891 1892 1893 1894 1895 1896 1897 1898 1899 1900 1901 1902 1903 1904 1905 1906 1907 1908 1909 1910 1911 1912 1913 1914 1915 1916 1917 1918 1919 1920 1921 1922 1923 1924 1925 1926 1927 1928 1929 1930 1931 1932 1933 1934 1935 1936 1937 1938 1939 1940 1941 1942 1943 1944 1945 1946 1947 1948 1949 1950 1951 1952 1953 1954 1955 1956 1957 1958 1959 1960 1961 1962 1963 1964 1965 1966 1967 1968 1969 1970 1971 1972 1973 1974 1975 1976 1977 1978 1979 1980 1981 1982 1983 1984 1985 1986 1987 1988 1989 1990 1991 1992 1993 1994 1995 1996 1997 1998 1999 2000 2001 2002 2003 2004 2005 2006 2007 2008 2009 2010 2011 2012 2013 2014 2015 2016 2017 2018 2019 2020 2021 2022 2023 2024 2025 2026 2027 2028 2029 2030 2031 2032 2033 2034 2035 2036 2037 2038 2039 2040 2041 2042 2043 2044 2045 2046 2047
feature_infos=[-0.6057668924331665:0.53789854049682617] [-0.64126735925674438:1] [0:2] [0:3] [-0.50096064805984497:4] [-0.65009546279907227:5] [1.3080406979781856e-08:6] [9.8649515223314665e-09:7] [-0.25533398985862732:8] [-0.68041002750396729:9] [1.27192247845187e-08:10] [1.0603431022104814e-08:11] [-0.56569266319274902:12] [-0.62192440032958984:13] [0:14] [0:15] [-0.68054795265197754:16] [-0.48140791058540339:17] [5.0672404938723048e-08:18] [6.7608745268898929e-08:19] [-0.32321140170097351:20] [-0.35916873812675482:21] [0.00042432162445038557:22] [0.00043007289059460163:23] [-0.34601619839668274:24] [-0.35129281878471369:25] [4.2004197894129902e-05:26] [8.3780760178342462e-05:27] [-0.36139571666717529:28] [-0.52376276254653931:29] [1.4070256781906212e-07:30] [4.0185348382237862e-08:31] [-0.67790043354034424:32] [-0.35216847062110901:33] [1.7241681860014069e-07:34] [1.7755370151917305e-07:35] [-0.34510216116905212:36] [-0.35790809988975525:37] [0.00024132432008627797:38] [0.00021358708909247068:39] [-0.35731995105743408:40] [-0.38633489608764648:41] [9.0179593826178461e-05:42] [3.1989915441954508e-05:43] [-0.43219286203384399:44] [-0.48474913835525513:45] [1.3384857311393714e-07:46] [6.110239780809934e-08:47] [-0.6559910774230957:48] [-0.22284629940986636:49] [0:50] [0:51] [-0.57616066932678223:52] [-0.50263595581054688:53] [1.1175818315223296e-07:54] [5.9217533987521171e-08:55] [-0.27058780193328857:56] [-0.51643377542495728:57] [1.3061632841981918e-07:58] [1.2691542394804856e-07:59] [-0.21246963739395144:60] [-0.30454200506210333:61] [0:62] [0:63] [-0.66150647401809692:64] [-0.5928652286529541:65] [0:66] [0:67] [-0.39850601553916931:68] [-0.67758363485336293:69] [3.9140770624612742e-09:70] [4.22383772402668e-09:71] [-0.2178894430398941:72] [-0.65954118967056274:73] [1.4429886174838202e-09:74] [9.5972723102022445e-09:75] [-0.51099562644958507:76] [-0.61209356784820557:77] [0:78] [0:79] [-0.67691880464553833:80] [-0.50504571199417114:81] [2.229747719795228e-09:82] [1.6083272669220605e-07:83] [-0.34567907452583313:84] [-0.34549963474273682:85] [0.00042020488763228059:86] [0.00033647747477516532:87] [-0.36644414067268372:88] [-0.35480871796607971:89] [0.00027421224513091147:90] [0.00020813166338484732:91] [-0.63919854164123535:92] [-0.55717206001281738:93] [3.6853342066933687e-07:94] [3.1954112955645536e-07:95] [-0.70099353790283203:96] [-0.37978100776672358:97] [5.7068746173172271e-08:98] [2.2179591496751527e-07:99] [-0.35029715299606323:100] [-0.3729217946529389:101] [0.00019742368021979928:102] [8.4564424469135702e-05:103] [-0.36076757311820973:104] [-0.35948318243026728:105] [0.00011955184163525701:106] [2.7694793971022588e-05:107] [-0.33155497908592224:108] [-0.3858806192874909:109] [3.9549425423501811e-07:110] [2.480505827406887e-07:111] [-0.69373172521591187:112] [-0.1758141964673996:113] [0:114] [0:115] [-0.46427133679389948:116] [-0.27497407793998718:117] [5.8837155592073025e-08:118] [5.9410325548014953e-08:119] [-0.3148876428604126:120] [-0.23048320412635806:121] [1.2728212084311965e-07:122] [7.5777322194880981e-08:123] [-0.31946790218353271:124] [-0.23406365513801569:125] [3.5561827869392763e-14:126] [3.5016609701904115e-14:127] [-0.66970151662826538:128] [-0.59399306774139404:129] [0:130] [0:131] [-0.35112172365188599:132] [-0.68204838037490845:133] [0:134] [0:135] [-0.23385052382946009:136] [-0.66274702548980713:137] [1.2439728136470762e-09:138] [1.8386083766586125e-08:139] [-0.55177360773086548:140] [-0.60991501808166504:141] [0:142] [0:143] [-0.68140274286270142:144] [-0.51433545351028442:145] [6.5500259438522321e-08:146] [3.1689722845840151e-08:147] [-0.33912670612335205:148] [-0.3955223560333252:149] [6.8187968281563371e-05:150] [0.00013767868222203106:151] [-0.36471167206764221:152] [-0.36605459451675415:153] [0.0001426099915988743:154] [4.3636868213070563e-05:155] [-0.38341039419174189:156] [-0.50043481588363647:157] [1.4689929628275422e-07:158] [1.6386228196552111e-07:159] [-0.69153189659118652:160] [-0.35539838671684265:161] [3.8837590921048104e-09:162] [1.8686344915863629e-08:163] [-0.3762816190719605:164] [-0.37795111536979681:165] [0.00015373462520074099:166] [0.00028934306465089316:167] [-0.35855329036712652:168] [-0.37078630924224848:169] [0.0002958503901027143:170] [0.00034501246409490705:171] [-0.58923608064651489:172] [-0.46333488821983337:173] [5.4629072110401466e-07:174] [3.312269711841509e-07:175] [-0.64781254529953003:176] [-0.48554757237434393:177] [0:178] [0:179] [-0.50068885087966919:180] [-0.25920954346656799:181] [5.7497380190341119e-09:182] [4.1801097694360585e-08:183] [-0.30817583203315729:184] [-0.50542956590652466:185] [1.452202980090078e-08:186] [2.0359799179914262e-08:187] [-0.17429648339748385:188] [-0.17803829908370972:189] [0:190] [0:191] [-0.67658436298370361:192] [-0.62173819541931152:193] [0:194] [0:195] [-0.47563269734382629:196] [-0.64500147104263306:197] [4.4945401567186849e-12:198] [4.667906686184331e-12:199] [-0.24913604557514191:200] [-0.65913206338882446:201] [5.2074513590127935e-09:202] [1.1302086377895647e-08:203] [-0.60052090883255005:204] [-0.63374018669128418:205] [0:206] [0:207] [-0.67398619651794434:208] [-0.53289681673049927:209] [3.5784404328609294e-09:210] [1.6302732497308625e-09:211] [-0.37908884882926941:212] [-0.38561683893203735:213] [0.00016335838881786913:214] [0.00031053798738867044:215] [-0.37510791420936573:216] [-0.3678994774818421:217] [0.00010099937935592608:218] [0.00013802121975459158:219] [-0.40769943594932562:220] [-0.51010578870773315:221] [1.5950791976138134e-07:222] [3.503990058106865e-07:223] [-0.69985175132751465:224] [-0.3449891209602356:225] [9.6144345818061083e-09:226] [3.5462750958004108e-08:227] [-0.34255769848823547:228] [-0.38226610422134399:229] [0.00020971862250007692:230] [0.00012379619874991477:231] [-0.37307336926460266:232] [-0.37212404608726501:233] [0.00022583895770367238:234] [0.0001929511345224455:235] [-0.5770300030708313:236] [-0.42807769775390631:237] [1.8560284331670121e-07:238] [6.6490542849351186e-07:239] [-0.69696110486984253:240] [-0.15922246873378754:241] [0:242] [0:243] [-0.43327480554580688:244] [-0.2319993078708649:245] [9.4061558542080093e-09:246] [5.4506621438576985e-08:247] [-0.23446522653102875:248] [-0.28908854722976685:249] [8.0607662766851718e-08:250] [2.5472061793152534e-07:251] [-0.20578242838382721:252] [-0.4933660626411438:253] [3.5289512197861361e-13:254] [7.886671459129968e-13:255] [-0.68053591251373291:256] [-0.62548482418060303:257] [0:258] [0:259] [-0.40127357840538025:260] [-0.65123778581619263:261] [2.1681650919092019e-10:262] [3.8866762586131637e-10:263] [-0.22768473625183105:264] [-0.66006356477737427:265] [3.0187099486767011e-09:266] [3.612361743066117e-09:267] [-0.57731795310974121:268] [-0.631644606590271:269] [0:270] [0:271] [-0.68809151649475098:272] [-0.48176783323287969:273] [9.3516014487704524e-08:274] [2.89296853139831e-08:275] [-0.38916316628456121:276] [-0.38168570399284357:277] [0.00013247545575723052:278] [0.00017939305689651519:279] [-0.3594057559967041:280] [-0.38843932747840881:281] [0.00046733982162550086:282] [0.00036356420605443418:283] [-0.29452979564666748:284] [-0.52234500646591187:285] [2.1977936626171865e-07:286] [1.9274541784852764e-07:287] [-0.67613166570663452:288] [-0.31879177689552313:289] [9.8271701887142643e-09:290] [1.1324708948379225e-09:291] [-0.36430773138999939:292] [-0.37299013137817377:293] [0.00019294224330224097:294] [0.00011303870996925978:295] [-0.38027346134185791:296] [-0.37511000037193298:297] [0.00034895254066213965:298] [0.00021603266941383481:299] [-0.3517000675201416:300] [-0.4995536208152771:301] [1.7658020112776285e-07:302] [1.9287980990156941e-07:303] [-0.67243701219558716:304] [-0.37786978483200068:305] [0:306] [0:307] [-0.59278827905654907:308] [-0.54873138666152954:309] [2.3786488334565088e-09:310] [4.1806682560263653e-09:311] [-0.24693295359611511:312] [-0.25732240080833435:313] [5.6766900513594016e-08:314] [9.4701732678004191e-08:315] [-0.23438470065593719:316] [-0.41108903288841248:317] [0:318] [0:319] [-0.67210578918457031:320] [-0.64587569236755371:321] [0:322] [0:323] [-0.43621283769607533:324] [-0.63485491275787354:325] [0:326] [0:327] [-0.24364806711673734:328] [-0.67443788051605225:329] [3.7344703718300571e-11:330] [4.3168771335366795e-10:331] [-0.45102661848068237:332] [-0.64570742845535278:333] [0:334] [0:335] [-0.67007720470428467:336] [-0.50097304582595825:337] [6.6382206398429831e-08:338] [2.149166888898435e-08:339] [-0.37445002794265753:340] [-0.39887982606887817:341] [0.00032109286985360086:342] [0.00011812506272690371:343] [-0.38857072591781616:344] [-0.3720391988754273:345] [0.00029359976178966463:346] [9.296086500398816e-05:347] [-0.54040199518203735:348] [-0.49878126382827759:349] [1.6830261984068784e-07:350] [3.8454697914858116e-07:351] [-0.6665305495262146:352] [-0.30274176597595209:353] [5.7093356709003729e-09:354] [1.2711042529645053e-07:355] [-0.37908744812011719:356] [-0.36528071761131292:357] [0.00011878473742399363:358] [0.00022671185433864594:359] [-0.35973975062370295:360] [-0.37325972318649292:361] [0.00019440476899035275:362] [0.00040064440690912312:363] [-0.58417868614196777:364] [-0.34451377391815186:365] [5.9755518577730982e-07:366] [1.4882807874982973e-07:367] [-0.64053386449813843:368] [-0.50765132904052734:369] [0:370] [0:371] [-0.43761137127876282:372] [-0.31448823213577271:373] [2.2848824221544104e-10:374] [6.0417421066105703e-10:375] [-0.25645765662193304:376] [-0.54899895191192627:377] [1.905129742851841e-08:378] [1.8246037569724652e-08:379] [-0.22227329015731809:380] [-0.233102947473526:381] [0:382] [0:383] [-0.66510146856307983:384] [-0.65940409898757935:385] [0:386] [0:387] [-0.39265424013137817:388] [-0.67558079957962036:389] [3.3074365468621636e-10:390] [8.7266160964105666e-10:391] [-0.25315555930137634:392] [-0.66913962364196777:393] [2.2210291383828466e-09:394] [5.913894263187558e-09:395] [-0.52904319763183594:396] [-0.64643263816833496:397] [0:398] [0:399] [-0.66209596395492554:400] [-0.46470645070075989:401] [2.2664682575168623e-08:402] [2.9790969691134702e-08:403] [-0.3607732355594635:404] [-0.40032562613487249:405] [0.00010580340313026682:406] [0.00016795285046100616:407] [-0.36641818284988398:408] [-0.38972654938697815:409] [0.00021505041513592005:410] [0.0002281140041304752:411] [-0.58968108892440796:412] [-0.48279210925102239:413] [2.9337351747926732e-07:414] [6.5695076045813039e-08:415] [-0.66984319686889648:416] [-0.35262614488601685:417] [1.9435855702631951e-11:418] [2.1282376902465039e-11:419] [-0.3701911866664887:420] [-0.39416041970252991:421] [0.00020001851953566077:422] [0.00019715314556378868:423] [-0.36031469702720642:424] [-0.42053809762001038:425] [0.00019601979875005784:426] [0.00011333490692777561:427] [-0.5889744758605957:428] [-0.38475093245506292:429] [1.4393287983693881e-07:430] [6.2000168554732227e-08:431] [-0.68777507543563843:432] [-0.21558040380477905:433] [0:434] [0:435] [-0.41734969615936279:436] [-0.30965915322303772:437] [3.0086482194491278e-09:438] [1.656460391075143e-08:439] [-0.28808644413948059:440] [-0.27720323204994202:441] [1.8792665201772248e-08:442] [6.5727604692256123e-08:443] [-0.30855089426040649:444] [-0.3215222954750061:445] [0:446] [0:447] [-0.66671895980834961:448] [-0.61180573701858521:449] [0:450] [0:451] [-0.41988945007324219:452] [-0.62170463800430298:453] [0:454] [0:455] [-0.25785151124000549:456] [-0.64759629964828491:457] [1.6910348121790264e-11:458] [2.8138226124130306e-11:459] [-0.66571664810180664:460] [-0.5887414813041687:461] [0:462] [0:463] [-0.69228070974349976:464] [-0.48826196789741522:465] [3.1104125497449786e-08:466] [1.7770847904330367e-08:467] [-0.48751440644264221:468] [-0.40123263001441961:469] [0.00015469922800548377:470] [0.0001949963625520468:471] [-0.35143142938613892:472] [-0.40070340037345892:473] [0.00017584666784387082:474] [0.00019194163905922323:475] [-0.62141180038452148:476] [-0.48433539271354681:477] [1.0518206750020909e-07:478] [6.9105475120068163e-08:479] [-0.65070247650146484:480] [-0.35553377866744995:481] [2.3312283659038254e-08:482] [1.788282411041564e-08:483] [-0.37064990401268011:484] [-0.3738253116607666:485] [0.00019089673878625035:486] [0.00031304117874242365:487] [-0.3760015070438385:488] [-0.3861657977104187:489] [0.00017565462621860206:490] [0.0001327058271272108:491] [-0.51993721723556519:492] [-0.37068668007850653:493] [1.3194433989838215e-08:494] [1.7307412747413767e-07:495] [-0.67978489398956299:496] [-0.18081147968769076:497] [0:498] [0:499] [-0.4788645207881928:500] [-0.25205439329147339:501] [4.751228924182449e-11:502] [7.8100143019455004e-10:503] [-0.41208717226982122:504] [-0.28002297878265381:505] [2.128391685118913e-08:506] [3.3393757092881067e-08:507] [-0.37156328558921808:508] [-0.22244147956371307:509] [0:510] [0:511] [-0.65251284837722778:512] [-0.60981440544128418:513] [0:514] [0:515] [-0.39404690265655518:516] [-0.67375308275222778:517] [2.410761590354582e-10:518] [7.0218730829907372e-10:519] [-0.24973247945308685:520] [-0.64354568719863892:521] [6.6288829980720731e-10:522] [1.4825954908204153e-09:523] [-0.51933056116104126:524] [-0.64091551303863525:525] [0:526] [0:527] [-0.68142515420913707:528] [-0.47684720158576971:529] [2.4937298892524487e-09:530] [1.1902725916002057e-08:531] [-0.4080207347869873:532] [-0.39162921905517578:533] [2.1968467990518548e-05:534] [0.00013513404701370746:535] [-0.37382686138153082:536] [-0.39164331555366522:537] [8.754676673561336e-05:538] [0.00021252541046123952:539] [-0.4807107150554657:540] [-0.50001287460327148:541] [1.9694100217293453e-07:542] [2.152097238194983e-07:543] [-0.65707266330718994:544] [-0.31426820158958435:545] [3.6440050976693771e-09:546] [1.5405808184709713e-08:547] [-0.38374736905097961:548] [-0.3762601912021637:549] [1.3183512237446848e-05:550] [0.00021311940508894625:551] [-0.36269626021385187:552] [-0.39172884821891785:553] [0.00020870244770776483:554] [0.00010480333730811252:555] [-0.61992889642715454:556] [-0.4032683670520783:557] [3.4531677073346145e-08:558] [4.6270105258372496e-07:559] [-0.63302367925643921:560] [-0.47866114974021912:561] [0:562] [0:563] [-0.4315942525863648:564] [-0.30314067006111145:565] [4.658136987245598e-08:566] [3.3829746115543458e-08:567] [-0.26001280546188354:568] [-0.30354857444763184:569] [2.9697881487322771e-08:570] [4.4666595755415977e-08:571] [-0.34132525324821472:572] [-0.33873763680458069:573] [8.4912977731522846e-16:574] [1.936136528828651e-16:575] [-0.66203778982162476:576] [-0.6325843334197998:577] [0:578] [0:579] [-0.44580838084220892:580] [-0.66286993026733398:581] [0:582] [0:583] [-0.2665692269802093:584] [-0.67864978313446045:585] [1.2023348983092319e-10:586] [5.1863491279391383e-10:587] [-0.45584151148796082:588] [-0.63499683141708374:589] [0:590] [0:591] [-0.66961562633514404:592] [-0.49866181612014771:593] [1.4218558419543117e-07:594] [2.0723568638914003e-07:595] [-0.38501507043838501:596] [-0.40123742818832397:597] [7.1619142545387149e-05:598] [0.00042039042455144232:599] [-0.381845623254776:600] [-0.40263482928276062:601] [0.00012055351544404402:602] [0.00013548314746003598:603] [-0.43790242075920105:604] [-0.49345934391021729:605] [4.9756829767488853e-09:606] [1.3839779455793175e-07:607] [-0.68373042345046997:608] [-0.41896355152130133:609] [4.5101120349499979e-07:610] [2.0171827941339873e-07:611] [-0.37560200691223145:612] [-0.37713542580604548:613] [5.7746179663809023e-05:614] [0.00024091020168270918:615] [-0.36243999004364014:616] [-0.3798491358757019:617] [0.00024468291667290032:618] [9.5137482276186361e-05:619] [-0.59409326314926147:620] [-0.35455921292304993:621] [2.4754680794103479e-07:622] [5.4604180377282319e-07:623] [-0.66744339466094971:624] [-0.18981215357780454:625] [0:626] [0:627] [-0.47614574432373052:628] [-0.23224250972270971:629] [4.6303108014456037e-09:630] [1.7729730572568769e-08:631] [-0.26246422529220581:632] [-0.54342645406723022:633] [2.3133580384637756e-08:634] [4.0510226284595774e-08:635] [-0.2652188241481781:636] [-0.47150981426239008:637] [1.1688033150374956e-14:638] [5.1615629766176355e-15:639] [-0.62600189447402954:640] [-0.64267975091934204:641] [0:642] [0:643] [-0.50284391641616821:644] [-0.65869832038879395:645] [0:646] [0:647] [-0.25721469521522522:648] [-0.69213426113128662:649] [8.6066528903749871e-11:650] [1.5732809499624525e-09:651] [-0.23934617638587949:652] [-0.6125178337097168:653] [0:654] [0:655] [-0.65410405397415161:656] [-0.4934355616569519:657] [6.7492308630789921e-08:658] [1.3111148611244516e-08:659] [-0.4335597455501557:660] [-0.38524201512336731:661] [9.7386066045146435e-05:662] [0.00019224485731683671:663] [-0.38008308410644531:664] [-0.39640709757804871:665] [9.9354067060630755e-05:666] [0.00023794239677954462:667] [-0.22555579245090485:668] [-0.48287555575370789:669] [1.3394961229096225e-07:670] [3.3289941825387359e-07:671] [-0.65303570032119751:672] [-0.34822931885719299:673] [5.5200581883241284e-09:674] [4.3425713025513346e-10:675] [-0.39110508561134338:676] [-0.38162818551063538:677] [0.00017147626203950495:678] [0.00023032576427794996:679] [-0.3653431236743927:680] [-0.38928398489952087:681] [0.0001373178674839437:682] [0.00018240768986288458:683] [-0.65519320964813232:684] [-0.34299704432487488:685] [1.3884648808470954e-07:686] [2.7139838820744444e-08:687] [-0.67569983005523682:688] [-0.17443306744098666:689] [0:690] [0:691] [-0.47356516122817988:692] [-0.27707543969154358:693] [2.0671488965007256e-09:694] [5.1742321538483793e-09:695] [-0.28484174609184265:696] [-0.22012133896350861:697] [2.041294955290596e-08:698] [2.8319362854745126e-08:699] [-0.20358498394489288:700] [-0.2253977507352829:701] [0:702] [0:703] [-0.66377228498458862:704] [-0.63944488763809204:705] [0:706] [0:707] [-0.35883831977844238:708] [-0.67810016870498657:709] [1.4431281170068644e-10:710] [2.065693616160047e-09:711] [-0.27740660309791565:712] [-0.66773176193237294:713] [1.2856273337580325e-11:714] [2.6291094301633683e-10:715] [-0.21237432956695559:716] [-0.61782312393188477:717] [0:718] [0:719] [-0.66871583461761475:720] [-0.47069317102432251:721] [1.2146551320313392e-08:722] [5.1422857083593954e-09:723] [-0.40834003686904907:724] [-0.3952610194683075:725] [9.0957510110456496e-05:726] [0.00015997755690477788:727] [-0.38366612792015081:728] [-0.3885384202003479:729] [0.00030893523944541812:730] [0.00014842771633993834:731] [-0.47889983654022222:732] [-0.50689798593521118:733] [4.1629828473332957e-08:734] [1.7005435282158032e-08:735] [-0.65036070346832275:736] [-0.33173981308937073:737] [2.6104316930286583e-08:738] [2.2193685111915332e-08:739] [-0.39818882942199707:740] [-0.39825326204299932:741] [0.00010365330672357231:742] [0.00029496671049855649:743] [-0.35728460550308228:744] [-0.38370707631111145:745] [0.0001353150000795722:746] [8.5982814198359847e-05:747] [-0.32357302308082581:748] [-0.37180319428443909:749] [5.6263741043949267e-07:750] [2.2304955393792625e-07:751] [-0.66613370180130005:752] [-0.2081693708896637:753] [0:754] [0:755] [-0.43150073289871216:756] [-0.34610390663146973:757] [5.8159397298140894e-09:758] [7.6224182521400491e-09:759] [-0.27719339728355408:760] [-0.27468609809875488:761] [1.0889887214204919e-08:762] [8.1512332883448822e-08:763] [-0.5276685357093811:764] [-0.42388761043548573:765] [0:766] [0:767] [-0.62273877859115601:768] [-0.62809890508651733:769] [0:770] [0:771] [-0.4055463969707489:772] [-0.64937245845794678:773] [0:774] [0:775] [-0.26731207966804504:776] [-0.66852873563766479:777] [5.6729277525535693e-11:778] [2.3578078378605483e-10:779] [-0.24206309020519254:780] [-0.64532482624053955:781] [0:782] [0:783] [-0.66967600584030151:784] [-0.52446389198303223:785] [2.518258268580098e-09:786] [1.3379040098016048e-09:787] [-0.40093743801116943:788] [-0.40282964706420898:789] [0.0001483800879213959:790] [0.00033281557261943817:791] [-0.38069328665733337:792] [-0.3941178023815155:793] [0.00029597428510896862:794] [0.00025407702196389437:795] [-0.63897734880447388:796] [-0.49281501770019531:797] [7.4307237696302764e-08:798] [6.035375577084777e-08:799] [-0.66252905130386353:800] [-0.46464130282402039:801] [1.0032538710902372e-07:802] [3.6309756978880609e-07:803] [-0.37937074899673462:804] [-0.37754246592521667:805] [5.5420838179998093e-05:806] [0.00016175345808733257:807] [-0.40544599294662481:808] [-0.38787233829498291:809] [0.00023325049551203847:810] [0.00052082148613408208:811] [-0.3638797402381897:812] [-0.33269241452217102:813] [4.023833071187255e-07:814] [8.3084117363796395e-08:815] [-0.66475200653076172:816] [-0.34545490145683289:817] [0:818] [0:819] [-0.46005123853683472:820] [-0.4056936502456665:821] [8.3367240888421169e-10:822] [2.1082706691544217e-09:823] [-0.3378409743309021:824] [-0.29676833748817444:825] [4.6875414660973994e-09:826] [3.4306928853311553e-08:827] [-0.2929961085319519:828] [-0.37565219402313232:829] [1.4421424141274107e-16:830] [3.775262374208267e-16:831] [-0.67059379816055298:832] [-0.63615524768829346:833] [0:834] [0:835] [-0.33884355425834656:836] [-0.64537465572357178:837] [8.5580965925036168e-11:838] [5.1321286109740072e-10:839] [-0.25900217890739441:840] [-0.64669793844223022:841] [1.8350163402680586e-11:842] [3.2087926760127066e-10:843] [-0.56002932786941528:844] [-0.56904643774032593:845] [0:846] [0:847] [-0.66162902116775513:848] [-0.53286135196685791:849] [1.7332714818962813e-08:850] [1.7733873036718251e-08:851] [-0.39225229620933533:852] [-0.3974539041519165:853] [9.5747142040636404e-05:854] [0.00013858244346920401:855] [-0.36446574330329895:856] [-0.41739773750305176:857] [0.00034175394102931023:858] [0.0001329830847680569:859] [-0.33499780297279358:860] [-0.51018190383911133:861] [6.8920286366847008e-08:862] [4.4933031517757627e-08:863] [-0.69739353656768799:864] [-0.34563350677490234:865] [4.4363002160707773e-09:866] [7.1828931691442222e-10:867] [-0.38355711102485657:868] [-0.38426157832145691:869] [0.00018880382413044569:870] [0.0002686923835426569:871] [-0.36675593256950378:872] [-0.39099267125129705:873] [0.00014165477477945387:874] [0.00012490252265706658:875] [-0.29860565066337585:876] [-0.33205139636993408:877] [4.3249219316976451e-08:878] [4.9507667654324894e-07:879] [-0.68384593725204468:880] [-0.56312471628189087:881] [0:882] [0:883] [-0.5153769850730896:884] [-0.30693486332893372:885] [1.6979354588997353e-09:886] [2.7678146441445502e-09:887] [-0.3548138439655304:888] [-0.3035794198513031:889] [1.2742045640834476e-08:890] [1.0988776999454331e-08:891] [-0.58012837171554565:892] [-0.53098207712173462:893] [9.518844029378316e-16:894] [3.5534246438457127e-17:895] [-0.61904376745223999:896] [-0.61410152912139893:897] [0:898] [0:899] [-0.3292689323425293:900] [-0.64419656991958618:901] [0:902] [0:903] [-0.26568290591239929:904] [-0.68604874610900879:905] [2.5564312819414961e-11:906] [1.7695786502791575e-10:907] [-0.56493067741394043:908] [-0.62233269214630127:909] [0:910] [0:911] [-0.66163408756256104:912] [-0.53632855415344238:913] [7.8426332095205015e-09:914] [7.8060952146685736e-10:915] [-0.39522337913513184:916] [-0.40061104297637939:917] [9.4974333478603512e-05:918] [5.5547621741425246e-05:919] [-0.37602624297142029:920] [-0.40128225088119512:921] [0.00016238028183579442:922] [0.00027614869759418065:923] [-0.47349995374679571:924] [-0.4782070517539978:925] [3.6272620462796119e-08:926] [1.5102559203228338e-08:927] [-0.66598784923553467:928] [-0.30839496850967407:929] [1.3002272147843996e-08:930] [1.9711403620448209e-09:931] [-0.39863014221191412:932] [-0.38966518640518188:933] [7.1728267357684672e-05:934] [6.1531354731414467e-05:935] [-0.36177811026573181:936] [-0.38784158229827881:937] [0.00015188565885182467:938] [8.1085090641863631e-05:939] [-0.39522907137870789:940] [-0.3417944610118866:941] [2.5665690372989047e-07:942] [9.1432731608165341e-08:943] [-0.68086016178131104:944] [-0.173338383436203:945] [0:946] [0:947] [-0.48825713992118841:948] [-0.30099740624427795:949] [5.8478137887618695e-09:950] [4.1975145137485015e-08:951] [-0.25386121869087219:952] [-0.56386351585388184:953] [4.5887249555676143e-09:954] [2.0033205316849489e-08:955] [-0.28300684690475464:956] [-0.26603060960769648:957] [0:958] [0:959] [-0.64271843433380127:960] [-0.63235783576965332:961] [0:962] [0:963] [-0.39418298006057739:964] [-0.64185547828674316:965] [0:966] [0:967] [-0.26815932989120483:968] [-0.66125446557998657:969] [3.9502781471259523e-13:970] [2.2837669255704185e-12:971] [-0.27427160739898682:972] [-0.60881590843200684:973] [0:974] [0:975] [-0.67306071519851685:976] [-0.48526579141616821:977] [1.6156487259166852e-09:978] [2.219842087924917e-09:979] [-0.41054537892341614:980] [-0.40296149253845215:981] [0.00014007656136527658:982] [7.8608434705529362e-05:983] [-0.38259944319725042:984] [-0.40006408095359797:985] [0.00025446171639487147:986] [0.00039696661406196654:987] [-0.57301747798919678:988] [-0.49160093069076538:989] [1.0930322957847237e-07:990] [3.5310227985974047e-07:991] [-0.67427170276641846:992] [-0.34854981303215032:993] [8.0235579957843584e-08:994] [2.1621085366518852e-08:995] [-0.39738735556602478:996] [-0.38470235466957092:997] [1.5188885299721731e-05:998] [6.666693661827594e-05:999] [-0.36403700709342962:1000] [-0.3796279132366181:1001] [0.00019275846716482192:1002] [0.00041129259625449777:1003] [-0.48716813325881958:1004] [-0.344728022813797:1005] [7.6491339484618948e-08:1006] [3.4452121155936766e-08:1007] [-0.64800763130187988:1008] [-0.25571557879447937:1009] [0:1010] [0:1011] [-0.43734622001647949:1012] [-0.28256377577781677:1013] [1.2833756279917452e-09:1014] [9.9591730418069363e-09:1015] [-0.25658810138702393:1016] [-0.32511055469512939:1017] [3.0563601427502363e-08:1018] [2.1715777620556764e-08:1019] [-0.32253986597061157:1020] [-0.2027047723531723:1021] [4.4020715859112265e-17:1022] [1.3736153311121695e-16:1023] [-0.64592546224594116:1024] [-0.65962320566177368:1025] [0:1026] [0:1027] [-0.53908246755599976:1028] [-0.64406794309616089:1029] [0:1030] [0:1031] [-0.25703012943267822:1032] [-0.68301498889923096:1033] [8.8670841502658232e-12:1034] [3.0317311161542904e-11:1035] [-0.38347914814949041:1036] [-0.60688138008117676:1037] [0:1038] [0:1039] [-0.66012841463088989:1040] [-0.48409739136695862:1041] [3.6668737379841332e-08:1042] [8.0248270251104259e-09:1043] [-0.45472180843353271:1044] [-0.40154004096984863:1045] [5.5654174502706162e-05:1046] [7.7696277003269643e-05:1047] [-0.36549696326255798:1048] [-0.39166873693466187:1049] [0.00028544460656121373:1050] [0.00044330995297059417:1051] [-0.55111092329025269:1052] [-0.47941496968269348:1053] [1.6978230377162618e-08:1054] [9.4340437684081718e-09:1055] [-0.66975563764572144:1056] [-0.34253206849098211:1057] [2.1738688626982143e-09:1058] [1.14405174223009e-09:1059] [-0.38279944658279419:1060] [-0.39128121733665466:1061] [8.7350905232597142e-05:1062] [7.530979928560555e-05:1063] [-0.37751668691635132:1064] [-0.3844374418258667:1065] [0.00023462713579647246:1066] [0.00013322361337486655:1067] [-0.22483853995800016:1068] [-0.3369368314743042:1069] [6.8383928919502068e-07:1070] [3.0149061558404355e-07:1071] [-0.67444932460784912:1072] [-0.19329048693180084:1073] [0:1074] [0:1075] [-0.44509074091911321:1076] [-0.27495384216308594:1077] [1.5640033712571719e-09:1078] [2.354469286203198e-09:1079] [-0.26708987355232239:1080] [-0.2287402153015137:1081] [1.0769731773052628e-08:1082] [6.2946106993422277e-08:1083] [-0.27555617690086365:1084] [-0.28145480155944824:1085] [3.5173625469886063e-15:1086] [1.0117744180448628e-14:1087] [-0.64247345924377441:1088] [-0.63151055574417114:1089] [0:1090] [0:1091] [-0.39841774106025696:1092] [-0.64529711008071899:1093] [0:1094] [0:1095] [-0.26081815361976624:1096] [-0.65962773561477661:1097] [1.2764307666390806e-10:1098] [9.4658414440118577e-10:1099] [-0.63692808151245117:1100] [-0.6545785665512085:1101] [0:1102] [0:1103] [-0.68087214231491089:1104] [-0.50339478254318237:1105] [2.0252930443831474e-09:1106] [4.8558396192888154e-10:1107] [-0.41037040948867798:1108] [-0.40765100717544561:1109] [0.00016396620776504278:1110] [0.00011626066407188772:1111] [-0.37996563315391541:1112] [-0.39240124821662897:1113] [0.00020164935267530384:1114] [0.0002101423597196117:1115] [-0.27487874031066889:1116] [-0.5236850380897522:1117] [2.0478086071307191e-07:1118] [1.7736270763180076e-07:1119] [-0.68336987495422363:1120] [-0.3261982798576355:1121] [3.130157910646858e-09:1122] [2.5948601600767063e-10:1123] [-0.41001078486442571:1124] [-0.3834572434425354:1125] [0.00010329004726372661:1126] [0.00027122758910991251:1127] [-0.37258478999137878:1128] [-0.39632037281990051:1129] [0.00019209853780921549:1130] [0.0002362279046792537:1131] [-0.24562899768352511:1132] [-0.36022651195526123:1133] [7.8485697940777754e-08:1134] [7.567916782136308e-08:1135] [-0.67358249425888062:1136] [-0.18685372173786166:1137] [0:1138] [0:1139] [-0.45173755288124079:1140] [-0.23347604274749759:1141] [1.3132265941351308e-08:1142] [1.4124606373400185e-08:1143] [-0.29956814646720892:1144] [-0.24736614525318146:1145] [9.2712237886871662e-09:1146] [1.5586788748578332e-08:1147] [-0.16492593288421631:1148] [-0.29990321397781372:1149] [1.5029655629153483e-18:1150] [8.1622993031495604e-19:1151] [-0.62159502506256104:1152] [-0.57881933450698853:1153] [0:1154] [0:1155] [-0.39130690693855291:1156] [-0.58150160312652588:1157] [0:1158] [0:1159] [-0.25978213548660278:1160] [-0.63742542266845703:1161] [2.5482801979670455e-10:1162] [1.9457082611751275e-09:1163] [-0.26258495450019842:1164] [-0.61566048860549927:1165] [0:1166] [0:1167] [-0.67324119806289673:1168] [-0.47758212685585022:1169] [2.7682538927820133e-08:1170] [1.5847513301636695e-09:1171] [-0.40837898850440979:1172] [-0.44827058911323547:1173] [0.00012127218360546975:1174] [0.00013235992810223252:1175] [-0.36243349313735962:1176] [-0.39333143830299377:1177] [0.00038242933806031937:1178] [0.00034456359571777284:1179] [-0.30518808960914612:1180] [-0.51428645849227894:1181] [3.4759435152409424e-07:1182] [8.1008562347051349e-07:1183] [-0.67124658823013306:1184] [-0.48712971806526179:1185] [4.2557539714493942e-09:1186] [1.0460194932448983e-09:1187] [-0.41349968314170837:1188] [-0.38503476977348328:1189] [0.00011792087752837688:1190] [0.00024668755941092968:1191] [-0.36781573295593262:1192] [-0.38528093695640558:1193] [0.00017037941142916682:1194] [0.00019395315030124041:1195] [-0.4924882054328919:1196] [-0.3235324621200561:1197] [2.40664064676821e-07:1198] [3.1928774291145601e-08:1199] [-0.65564185380935669:1200] [-0.21872381865978241:1201] [0:1202] [0:1203] [-0.4596467018127442:1204] [-0.34055683016777039:1205] [1.0474343614674806e-09:1206] [2.0957648949604386e-09:1207] [-0.26867291331291199:1208] [-0.4000893235206604:1209] [3.8741940211473036e-10:1210] [8.2761495434624521e-09:1211] [-0.396892249584198:1212] [-0.5466238260269165:1213] [8.9072714183841322e-16:1214] [4.4607867848492615e-16:1215] [-0.64503896236419678:1216] [-0.62900561094284058:1217] [0:1218] [0:1219] [-0.57953727245330811:1220] [-0.6365588903427124:1221] [0:1222] [0:1223] [-0.26414337754249573:1224] [-0.67723351716995239:1225] [5.2668140682055066e-11:1226] [8.557571318235092e-10:1227] [-0.50076711177825928:1228] [-0.61818027496337891:1229] [0:1230] [0:1231] [-0.66214781999588013:1232] [-0.50775033235549927:1233] [3.8838088300963144e-09:1234] [6.1123600625379016e-10:1235] [-0.39832970499992371:1236] [-0.40535461902618408:1237] [0.00024062070588115605:1238] [0.00014877691864967346:1239] [-0.36364847421646118:1240] [-0.40932139754295349:1241] [5.8968009398085997e-05:1242] [0.00020984884758945557:1243] [-0.60719937086105347:1244] [-0.52123349905014038:1245] [1.481978895156999e-08:1246] [8.1330142620572587e-08:1247] [-0.68250715732574463:1248] [-0.32100924849510193:1249] [3.8229046595006366e-09:1250] [1.2153123840619172e-08:1251] [-0.40505999326705933:1252] [-0.38085034489631647:1253] [5.5655993492109708e-05:1254] [0.00014164829917717725:1255] [-0.36114272475242615:1256] [-0.3878072202205658:1257] [0.00016244129801634699:1258] [0.00038372518611140549:1259] [-0.31484699249267578:1260] [-0.36996433138847351:1261] [6.4096724372575409e-08:1262] [3.579571483669497e-08:1263] [-0.65786635875701904:1264] [-0.17989599704742432:1265] [0:1266] [0:1267] [-0.46404367685317988:1268] [-0.24961937963962555:1269] [1.5239336459416108e-09:1270] [1.0646410864012525e-08:1271] [-0.26499170064926147:1272] [-0.47644641995429993:1273] [2.174087576634065e-09:1274] [2.0186545768297037e-09:1275] [-0.17235130071640015:1276] [-0.20221394300460813:1277] [2.6369355375470412e-15:1278] [1.1888190000426465e-15:1279] [-0.66495633125305176:1280] [-0.6228715181350708:1281] [0:1282] [0:1283] [-0.39092212915420532:1284] [-0.63143998384475708:1285] [0:1286] [0:1287] [-0.27483725547790527:1288] [-0.67761808633804321:1289] [9.9795040287009584e-11:1290] [2.8282565178727737e-10:1291] [-0.64502447843551636:1292] [-0.6777840256690979:1293] [0:1294] [0:1295] [-0.65165454149246216:1296] [-0.48033356666564941:1297] [1.9446270371759056e-08:1298] [6.7824586835740774e-08:1299] [-0.40101918578147888:1300] [-0.41249692440032959:1301] [0.00010796198330353944:1302] [0.0001540035882499069:1303] [-0.37866207957267761:1304] [-0.41300126910209656:1305] [0.00028849684167653322:1306] [0.00014367970288731158:1307] [-0.38191273808479309:1308] [-0.50789088010787964:1309] [3.0394983241421869e-07:1310] [3.1914836995383661e-07:1311] [-0.67218947410583496:1312] [-0.3269273042678833:1313] [7.8054196439580892e-10:1314] [2.4086863059658015e-10:1315] [-0.40617108345031738:1316] [-0.38847240805625921:1317] [6.641330401180312e-05:1318] [7.9717341577634215e-05:1319] [-0.3760994970798493:1320] [-0.38959652185440063:1321] [0.00030153905390761787:1322] [0.00036499713314697141:1323] [-0.33731564879417419:1324] [-0.3896954357624054:1325] [5.2478650758303047e-08:1326] [7.9861637303224597e-09:1327] [-0.67383944988250732:1328] [-0.17488585412502289:1329] [0:1330] [0:1331] [-0.42599266767501831:1332] [-0.32674902677536011:1333] [8.7399243398067467e-09:1334] [1.5501385064453643e-08:1335] [-0.26726436614990234:1336] [-0.337291419506073:1337] [8.8859897218185324e-09:1338] [2.961259504274949e-08:1339] [-0.4342951774597168:1340] [-0.53260457515716553:1341] [8.1169089457680868e-17:1342] [3.8304911061260651e-17:1343] [-0.62842553853988647:1344] [-0.65816587209701538:1345] [0:1346] [0:1347] [-0.42380627989768982:1348] [-0.64344567060470581:1349] [0:1350] [0:1351] [-0.3168003261089325:1352] [-0.65708088874816895:1353] [1.4965048297788108e-11:1354] [1.749044797882959e-10:1355] [-0.31565114855766296:1356] [-0.6035115122795105:1357] [0:1358] [0:1359] [-0.66077566146850586:1360] [-0.48880651593208307:1361] [3.8444691874417458e-11:1362] [4.599469242971832e-12:1363] [-0.40348905324935908:1364] [-0.40917396545410162:1365] [3.1979354389477521e-05:1366] [4.8777626943774515e-05:1367] [-0.37012112140655518:1368] [-0.40580004453659058:1369] [7.88110410212539e-05:1370] [0.00034573240554891527:1371] [-0.31091120839118958:1372] [-0.47978144884109503:1373] [4.1492565827638834e-08:1374] [1.3672143417409188e-08:1375] [-0.67054170370101929:1376] [-0.43434774875640869:1377] [4.6170547385315786e-09:1378] [2.0098260833378845e-09:1379] [-0.3959403932094574:1380] [-0.38504394888877869:1381] [0.0001140764361480251:1382] [0.00017435428162571045:1383] [-0.38631230592727661:1384] [-0.3924182653427124:1385] [0.00022559292847290635:1386] [6.4750674937386066e-05:1387] [-0.34670022130012512:1388] [-0.35787394642829889:1389] [1.5333628766711627e-07:1390] [3.0530063810374486e-08:1391] [-0.66303867101669312:1392] [-0.19621516764163971:1393] [0:1394] [0:1395] [-0.4271148145198822:1396] [-0.25625172257423395:1397] [1.1875904426528194e-10:1398] [5.4505461255516252e-10:1399] [-0.26194632053375244:1400] [-0.2408535033464432:1401] [1.8687513758663958e-09:1402] [2.0749055806845718e-08:1403] [-0.36947676539421082:1404] [-0.4388706386089325:1405] [0:1406] [0:1407] [-0.67518860101699829:1408] [-0.60720956325531006:1409] [0:1410] [0:1411] [-0.29058930277824396:1412] [-0.66013103723526001:1413] [0:1414] [0:1415] [-0.26350921392440801:1416] [-0.64007610082626343:1417] [2.0482310292280204e-11:1418] [3.9030972898146388e-10:1419] [-0.56535470485687256:1420] [-0.61526566743850708:1421] [0:1422] [0:1423] [-0.68160402774810791:1424] [-0.48540890216827393:1425] [2.1841137787248499e-09:1426] [5.2048865217813045e-10:1427] [-0.40052813291549683:1428] [-0.41315564513206482:1429] [0.00027983734617009759:1430] [0.00017085735453292727:1431] [-0.36851906776428223:1432] [-0.40558022260665888:1433] [9.7884396382141858e-05:1434] [5.2927021897630766e-05:1435] [-0.25150555372238159:1436] [-0.48870852589607239:1437] [3.8486348330479807e-08:1438] [2.3621891998004685e-08:1439] [-0.63865077495574951:1440] [-0.33837431669235229:1441] [4.7024228955194758e-09:1442] [6.6033383205876817e-09:1443] [-0.40087190270423889:1444] [-0.37781903147697449:1445] [0.00015524974151048809:1446] [0.00020058338122908026:1447] [-0.38038569688797003:1448] [-0.3883892297744751:1449] [0.00012439700367394837:1450] [0.00016355123079847544:1451] [-0.56651133298873901:1452] [-0.35625594854354858:1453] [3.6988981833019352e-07:1454] [5.4728610621168627e-07:1455] [-0.64553868770599365:1456] [-0.20339488983154294:1457] [0:1458] [0:1459] [-0.48808348178863531:1460] [-0.30266100168228149:1461] [4.2541183908895155e-09:1462] [7.7617414717678912e-09:1463] [-0.25151202082633972:1464] [-0.40648829936981201:1465] [9.8116004210169194e-09:1466] [1.1282700107528854e-08:1467] [-0.19355589151382446:1468] [-0.50498026609420776:1469] [1.1410461300592671e-15:1470] [2.3165436311822076e-15:1471] [-0.68252605199813843:1472] [-0.59595125913619995:1473] [0:1474] [0:1475] [-0.45787423849105841:1476] [-0.66453152894973755:1477] [0:1478] [0:1479] [-0.2600233256816864:1480] [-0.63955152034759521:1481] [1.8413267438566194e-11:1482] [9.5122971999206372e-11:1483] [-0.54207056760787964:1484] [-0.61994314193725586:1485] [0:1486] [0:1487] [-0.66260915994644165:1488] [-0.48641034960746771:1489] [1.3205939453087012e-08:1490] [3.6846521389577447e-09:1491] [-0.43173226714134216:1492] [-0.39959549903869629:1493] [8.3140643255319446e-05:1494] [0.00016264652367681265:1495] [-0.3901180624961853:1496] [-0.41181096434593201:1497] [0.00016474374569952488:1498] [0.00011341824574628845:1499] [-0.36655297875404358:1500] [-0.48980382084846502:1501] [6.1852666988215788e-08:1502] [2.6381673734476866e-08:1503] [-0.64152950048446655:1504] [-0.3756985068321228:1505] [1.055029744123637e-10:1506] [6.4884204779847021e-12:1507] [-0.41285929083824158:1508] [-0.38765361905097961:1509] [0.0002512122446205467:1510] [0.00028567708795890217:1511] [-0.37525758147239691:1512] [-0.38036859035491932:1513] [0.00017059287347365168:1514] [0.00015067661297507584:1515] [-0.36996915936470032:1516] [-0.32344096899032593:1517] [3.4399991477584985e-07:1518] [6.9617527742593666e-08:1519] [-0.65459060668945313:1520] [-0.25871214270591736:1521] [0:1522] [0:1523] [-0.40178906917572021:1524] [-0.33904752135276794:1525] [2.3243731939182053e-10:1526] [2.2047359493626573e-09:1527] [-0.2891909778118133:1528] [-0.34815788269042969:1529] [4.8636783489541804e-09:1530] [5.9864375678841952e-09:1531] [-0.21692340075969696:1532] [-0.27028936147689819:1533] [0:1534] [0:1535] [-0.69581162929534912:1536] [-0.60139995813369751:1537] [0:1538] [0:1539] [-0.46928972005844122:1540] [-0.62577062845230103:1541] [6.004390040725839e-11:1542] [3.8985231709531831e-10:1543] [-0.28080815076828003:1544] [-0.64649808406829834:1545] [5.3238897258821646e-14:1546] [1.4021310425649941e-13:1547] [-0.41062444448471069:1548] [-0.60891067981719971:1549] [0:1550] [0:1551] [-0.65834802389144897:1552] [-0.50710630416870117:1553] [5.0499465720221792e-11:1554] [1.4114319088487367e-11:1555] [-0.3944186270236969:1556] [-0.39932817220687866:1557] [0.00022066969540901479:1558] [0.00033564399927854538:1559] [-0.3812870979309082:1560] [-0.41105496883392334:1561] [0.00017011130694299936:1562] [0.00023559758847113701:1563] [-0.57618826627731323:1564] [-0.48163646459579468:1565] [6.226147064580799e-08:1566] [7.0119789086220408e-08:1567] [-0.64981698989868164:1568] [-0.33727419376373291:1569] [4.4701454982032374e-08:1570] [3.3807573629474064e-08:1571] [-0.40990641713142401:1572] [-0.38800874352455139:1573] [8.7145890574902296e-05:1574] [0.00016803607286419719:1575] [-0.36516296863555908:1576] [-0.39615464210510254:1577] [0.00029920134693384171:1578] [0.00018771416216623041:1579] [-0.37981131672859192:1580] [-0.35113650560379028:1581] [7.7960706335034047e-08:1582] [1.3796674913635343e-08:1583] [-0.67187982797622681:1584] [-0.27770242094993591:1585] [0:1586] [0:1587] [-0.49692240357398981:1588] [-0.33725434541702271:1589] [2.3679020966227422e-09:1590] [1.5028690514284906e-09:1591] [-0.26725098490715032:1592] [-0.2872234582901001:1593] [1.3710244051168274e-09:1594] [2.2452462111743902e-09:1595] [-0.2482488751411438:1596] [-0.24675793945789334:1597] [0:1598] [0:1599] [-0.6269068717956543:1600] [-0.64197009801864624:1601] [0:1602] [0:1603] [-0.42302006483077997:1604] [-0.64800816774368286:1605] [4.6890599042503922e-11:1606] [9.153848512521988e-11:1607] [-0.26954048871994019:1608] [-0.62861907482147217:1609] [9.9136766504304141e-12:1610] [8.0885936837304939e-11:1611] [-0.41823750734329213:1612] [-0.61609417200088501:1613] [0:1614] [0:1615] [-0.67157649993896484:1616] [-0.47416007518768311:1617] [7.6914819999163164e-12:1618] [5.3458377047982397e-13:1619] [-0.41601711511611938:1620] [-0.40917858481407171:1621] [0.0001905225362861529:1622] [0.0001625147124286741:1623] [-0.37341424822807312:1624] [-0.40789496898651117:1625] [0.00010187035513808951:1626] [0.0001081063601304777:1627] [-0.49404624104499822:1628] [-0.49861055612564092:1629] [4.2944780176412678e-08:1630] [6.8334351510657143e-09:1631] [-0.69184398651123047:1632] [-0.32615023851394648:1633] [1.6760727250542118e-09:1634] [2.617525640680185e-10:1635] [-0.40730580687522888:1636] [-0.38668516278266907:1637] [8.1411119026597589e-05:1638] [0.00021554376871790734:1639] [-0.36707478761672974:1640] [-0.38988053798675537:1641] [0.00013007879897486418:1642] [8.1945181591436267e-05:1643] [-0.47717642784118652:1644] [-0.32250016927719122:1645] [3.3642464813965489e-07:1646] [9.4502567549170648e-08:1647] [-0.64292192459106445:1648] [-0.18848308920860291:1649] [0:1650] [0:1651] [-0.51476359367370594:1652] [-0.2864195704460144:1653] [3.6998066832438781e-09:1654] [1.4188024088923612e-08:1655] [-0.27374890446662903:1656] [-0.32097956538200378:1657] [3.159379424744202e-10:1658] [4.7499931765671022e-10:1659] [-0.29490670561790466:1660] [-0.25877711176872248:1661] [2.1294205634723035e-18:1662] [7.1654841094893387e-19:1663] [-0.63719451427459717:1664] [-0.61335712671279907:1665] [0:1666] [0:1667] [-0.38127139210700989:1668] [-0.59755057096481323:1669] [4.5877998665691533e-13:1670] [2.5009625446992256e-12:1671] [-0.2578575611114502:1672] [-0.66525506973266602:1673] [7.4566026964095768e-11:1674] [4.5610412668928291e-10:1675] [-0.16234099864959714:1676] [-0.60859644412994385:1677] [0:1678] [0:1679] [-0.67450582981109619:1680] [-0.48983830213546747:1681] [7.6913822533164491e-11:1682] [3.439269424809765e-10:1683] [-0.41346839070320129:1684] [-0.40703031420707703:1685] [5.8090390666620813e-05:1686] [9.698885696707292e-05:1687] [-0.38133960962295532:1688] [-0.41164654493331909:1689] [0.00043104356154799461:1690] [0.00049736362416297197:1691] [-0.52390742301940918:1692] [-0.47073790431022638:1693] [2.2063112226078371e-07:1694] [4.6779621953874084e-08:1695] [-0.65832304954528809:1696] [-0.44063973426818848:1697] [5.7242099948950902e-11:1698] [6.8608382863821752e-12:1699] [-0.41602402925491327:1700] [-0.38722947239875788:1701] [6.5507629187777638e-05:1702] [0.00015462945157196373:1703] [-0.38362613320350653:1704] [-0.39113658666610718:1705] [0.00024036267132032665:1706] [6.5699088736437261e-05:1707] [-0.47778612375259399:1708] [-0.39831671118736267:1709] [2.099100129271392e-07:1710] [1.420523290107667e-07:1711] [-0.6694146990776062:1712] [-0.23140937089920044:1713] [0:1714] [0:1715] [-0.48499944806098938:1716] [-0.25108367204666138:1717] [4.0106686860497121e-09:1718] [5.09467534826058e-09:1719] [-0.29393118619918823:1720] [-0.22584851086139679:1721] [6.8394739871635579e-10:1722] [1.5037064926559651e-08:1723] [-0.18611446022987368:1724] [-0.34361305832862848:1725] [0:1726] [0:1727] [-0.62640929222106934:1728] [-0.62649333477020264:1729] [0:1730] [0:1731] [-0.42572540044784551:1732] [-0.67161023616790771:1733] [1.677256864483518e-14:1734] [1.1985398296662092e-13:1735] [-0.27111536264419561:1736] [-0.64459270238876343:1737] [1.716017605790654e-10:1738] [1.4702433714930407e-09:1739] [-0.36415392160415649:1740] [-0.63503539562225342:1741] [0:1742] [0:1743] [-0.67260026931762706:1744] [-0.50445199012756348:1745] [7.9010731290907188e-10:1746] [1.8247085786793352e-10:1747] [-0.51633793115615845:1748] [-0.3995518684387207:1749] [0.000276286358712241:1750] [0.00015305975102819502:1751] [-0.37286850810050959:1752] [-0.41462570428848267:1753] [2.9928494768682867e-05:1754] [4.0839149733074009e-05:1755] [-0.55892497301101685:1756] [-0.50209379196166992:1757] [6.6257534570013377e-08:1758] [3.2959871276716513e-08:1759] [-0.66184002161026001:1760] [-0.32150363922119141:1761] [8.9343460407675934e-10:1762] [5.8453478168907212e-11:1763] [-0.40749835968017578:1764] [-0.38448256254196173:1765] [0.00019666177104227245:1766] [0.0001926530239870772:1767] [-0.3778826892375946:1768] [-0.38690224289894093:1769] [0.00018753933545667681:1770] [0.00019858904124703256:1771] [-0.53476405143737793:1772] [-0.3457004725933075:1773] [7.425285986073503e-08:1774] [5.0613486735073814e-08:1775] [-0.67133522033691406:1776] [-0.27085691690444946:1777] [0:1778] [0:1779] [-0.41522526741027832:1780] [-0.35187813639640808:1781] [1.4048057161986096e-09:1782] [6.9283329073854826e-10:1783] [-0.2569449245929718:1784] [-0.32971158623695368:1785] [1.4944767645630466e-09:1786] [1.7952054065517586e-08:1787] [-0.22536520659923556:1788] [-0.3194878101348877:1789] [0:1790] [0:1791] [-0.6296011209487915:1792] [-0.61731863021850586:1793] [0:1794] [0:1795] [-0.39128667116165161:1796] [-0.6240009069442749:1797] [7.9475992844149634e-13:1798] [1.3649567587314948e-12:1799] [-0.2680036723613739:1800] [-0.64477640390396118:1801] [6.0266956355969903e-12:1802] [2.4589158834076308e-11:1803] [-0.64653646945953369:1804] [-0.64082694053649902:1805] [0:1806] [0:1807] [-0.65592497587203979:1808] [-0.53316926956176758:1809] [2.9290374570223321e-09:1810] [7.6091627443375387e-10:1811] [-0.42510318756103521:1812] [-0.41050425171852112:1813] [0.00028080458287149668:1814] [0.00016378264990635214:1815] [-0.38078778982162481:1816] [-0.41036081314086909:1817] [0.00025340745924040675:1818] [0.00014960581029299649:1819] [-0.45297729969024658:1820] [-0.47649559378623962:1821] [1.1494730500771766e-07:1822] [9.537061629316669e-08:1823] [-0.66771191358566284:1824] [-0.36065542697906494:1825] [3.095587430834712e-08:1826] [1.418743700298819e-08:1827] [-0.40389660000801092:1828] [-0.38863205909729009:1829] [0.00017880920495372266:1830] [0.00017546393792144954:1831] [-0.38606524467468262:1832] [-0.39383095502853388:1833] [0.00013107999984640628:1834] [5.3283278248272836e-05:1835] [-0.228681355714798:1836] [-0.37777045369148254:1837] [2.6533584218668688e-07:1838] [1.5279580622973302e-07:1839] [-0.65494829416275024:1840] [-0.30211812257766724:1841] [0:1842] [0:1843] [-0.53678274154663086:1844] [-0.24271418154239649:1845] [1.8772536858335802e-09:1846] [4.2519263665496965e-09:1847] [-0.29057484865188599:1848] [-0.3311733603477478:1849] [4.8995301149545867e-09:1850] [2.3127853410187527e-08:1851] [-0.22288750112056727:1852] [-0.58901715278625488:1853] [0:1854] [0:1855] [-0.64801192283630371:1856] [-0.63136816024780273:1857] [0:1858] [0:1859] [-0.34809035062789923:1860] [-0.646881103515625:1861] [3.6811312331686002e-10:1862] [2.061872894643102e-09:1863] [-0.26792410016059875:1864] [-0.6208617091178894:1865] [4.1164162356555074e-11:1866] [3.4903319123813503e-10:1867] [-0.32573151588439941:1868] [-0.63256716728210449:1869] [0:1870] [0:1871] [-0.67961585521697998:1872] [-0.475472092628479:1873] [0:1874] [0:1875] [-0.51384365558624268:1876] [-0.51168453693389893:1877] [0.00021126921637915075:1878] [0.00030285376124084001:1879] [-0.39213874936103821:1880] [-0.41174784302711492:1881] [9.5445255283266292e-05:1882] [4.7012581489980221e-05:1883] [-0.34694042801856995:1884] [-0.49114727973937988:1885] [2.8730431722578942e-07:1886] [1.2109414626593207e-07:1887] [-0.65037810802459717:1888] [-0.31271493434906011:1889] [1.3115719177392292e-08:1890] [1.6236250122148022e-09:1891] [-0.39820611476898188:1892] [-0.39020439982414251:1893] [0.00014082073175814003:1894] [0.0004220113623887301:1895] [-0.38160702586174011:1896] [-0.39419591426849371:1897] [0.00030575782875530422:1898] [0.00047784126945771277:1899] [-0.29761523008346558:1900] [-0.42762485146522522:1901] [2.1020523988113385e-08:1902] [3.8592073536847231e-08:1903] [-0.66740226745605469:1904] [-0.2274476736783981:1905] [0:1906] [0:1907] [-0.41723999381065369:1908] [-0.30000951886177063:1909] [9.7329477810603748e-09:1910] [1.7931711226992778e-08:1911] [-0.2630513608455658:1912] [-0.26177901029586792:1913] [6.3897385646494173e-12:1914] [2.1391288046457291e-11:1915] [-0.23957137763500211:1916] [-0.24022321403026581:1917] [0:1918] [0:1919] [-0.6399848461151123:1920] [-0.65014398097991943:1921] [0:1922] [0:1923] [-0.43896368145942688:1924] [-0.66565167903900146:1925] [4.4076972161109084e-14:1926] [2.5164478790681849e-13:1927] [-0.26406815648078918:1928] [-0.63087296485900879:1929] [9.6702186189179235e-12:1930] [2.1712784348260072e-10:1931] [-0.52990049123764038:1932] [-0.61257654428482056:1933] [0:1934] [0:1935] [-0.66156858205795288:1936] [-0.47268655896186829:1937] [0:1938] [0:1939] [-0.40011706948280334:1940] [-0.41402715444564819:1941] [0.00013683100405614823:1942] [0.00032929138978943234:1943] [-0.36645230650901789:1944] [-0.40931636095047003:1945] [0.0001572429318912327:1946] [0.00030525107285939162:1947] [-0.33789017796516418:1948] [-0.4792651236057282:1949] [2.5934974701158358e-07:1950] [1.3000907017612914e-07:1951] [-0.67395520210266113:1952] [-0.3388716578483581:1953] [3.1350623430626001e-08:1954] [1.6839841521232302e-08:1955] [-0.40680918097496033:1956] [-0.39748871326446528:1957] [0.00014785674284212291:1958] [0.00025018121232278645:1959] [-0.3784048855304718:1960] [-0.38881877064704895:1961] [0.0002977143158204853:1962] [0.00040406172047369182:1963] [-0.54484522342681885:1964] [-0.3554115891456604:1965] [1.0613606491460814e-06:1966] [2.8138873631178285e-07:1967] [-0.67711943387985229:1968] [-0.2526094913482666:1969] [0:1970] [0:1971] [-0.43027901649475103:1972] [-0.33104318380355835:1973] [8.1462732393067241e-11:1974] [5.8192317631267088e-10:1975] [-0.28082835674285889:1976] [-0.27557188272476202:1977] [1.3918984853589222e-09:1978] [6.2714042847744622e-09:1979] [-0.30379882454872131:1980] [-0.39091885089874268:1981] [0:1982] [0:1983] [-0.67439991235733032:1984] [-0.64325523376464844:1985] [0:1986] [0:1987] [-0.48418897390365601:1988] [-0.58760112524032593:1989] [0:1990] [0:1991] [-0.27207869291305542:1992] [-0.67064231634140015:1993] [1.2204882070265821e-11:1994] [1.8832653492228959e-10:1995] [-0.31650844216346741:1996] [-0.60819119215011597:1997] [0:1998] [0:1999] [-0.66023945808410645:2000] [-0.48658022284507751:2001] [2.5973655518041202e-11:2002] [1.6889318069090994e-11:2003] [-0.40586075186729431:2004] [-0.41089901328086847:2005] [0.00025752923102118075:2006] [0.00037409234209917491:2007] [-0.37332835793495178:2008] [-0.40400275588035583:2009] [0.00047016274766065186:2010] [0.00029761451878584916:2011] [-0.37651351094245911:2012] [-0.4912257194519043:2013] [1.4407990533982232e-07:2014] [5.2702095132417532e-08:2015] [-0.63932192325592041:2016] [-0.34268307685852051:2017] [4.066751202458363e-08:2018] [3.1080109152981088e-08:2019] [-0.3949449360370636:2020] [-0.3989033997058869:2021] [5.0948616262758151e-05:2022] [0.00013110898726154121:2023] [-0.37981489300727839:2024] [-0.38720768690109247:2025] [0.0001889660197775811:2026] [0.00031230528838932514:2027] [-0.20964697003364566:2028] [-0.39049768447875977:2029] [2.029334211783862e-08:2030] [8.7492182387904904e-09:2031] [-0.64130795001983643:2032] [-0.20462214946746826:2033] [0:2034] [0:2035] [-0.40032112598419189:2036] [-0.22982785105705261:2037] [2.1155985852061572e-09:2038] [4.4575902968801984e-09:2039] [-0.25990211963653564:2040] [-0.22500821948051453:2041] [1.4693649630359573e-09:2042] [7.3871380124046474e-09:2043] [-0.18830372393131256:2044] [-0.2375649958848953:2045] [0:2046] [0:2047]
tree_sizes=2600 2630 2626 2629 2623 2616 2616 2613 2619 2619 2623 2631 2627 2626 2624 2612 2628 2634 2630 2612 2633 2619 2618 2635 2619 2616 2637 2627 2623 2625 2621 2625 2640 2616 2616 2625 2612 2629 2634 2628 2641 2625 2623 2624 2633 2612 2636 2622 2611 2638 2643 2630 2636 2634 2629 2625 2639 2629 2631 2621 2601 2622 2633 2624 2628 2622 2635 2616 2629 2640 2629 2627 2629 2638 2635 2605 2646 2608 2625 2626 2656 2622 2625 2631 2639 2649 2630 2626 2651 2625 2612 2634 2627 2619 2623 2620 2650 2640 2637 2620 2650 2608 2629 2630 2632 2614 2639 2623 2634 2619 2650 2605 2607 2636 2642 2644 2621 2613 2644 2631 2628 2635 2628 2620 2650 2645 2622 2627 2614 2643 2632 2621 2616 2624 2625 2647 2618 2624 2634 2632 2627 2643 2626 2632 2624 2625 2629 2631 2624 2620 2628 2632 2634 2623 2635 2618 2632 2628 2640 2630 2645 2633 2637 2627 2627 2639 2611 2635 2623 2641 2630 2625 2629 2629 2634 2644 2621 2633 2633 2632 2639 2623 2613 2626 2637 2636 2644 2642 2657 2639 2643 2634 2618 2638 2637 2637 2633 2632 2638 2638 2635 2648 2626 2640 2602 2614 2648 2632 2622 2628 2626 2619 2610 2630 2637 2666 2638 2624 2640 2637 2634 2616 2645 2637 2639 2616 2644 2648 2641 2649 2638 2643 2636 2642 2634 2634 2635 2637 2643 2636 2633 2625 2628 2639 2623 2639 2628 2626 2649 2644 2654 2644 2646 2637 2636 2642 2657 2647 2668 2652 2648 2644 2657 2667 2646 2641 2654 2669 2650 2666 2652 2651 2675 2656 2670 2668 2673 2655 2644 2669 2656 2664 2665 2666 2656 2669 2656 2666 2679 2665 2685 2653 2671 2671 2666 2678 2681 2644 2677 2654 2691 2674 2676 2662 2665 2663 2663 2646 2631 2675 2666 2667 2663 2656 2664 2650 2675 2661 2665 2669 2652 2664 2664 2664 2670 2644 2656 2665 2687 2672 2665 2670 2677 2667 2668 2660 2660 2647 2662 2660 2673 2638 2661 2646 2674 2666 2650 2656 2676 2662 2652 2677 2674 2666 2672 2672 2651 2661 2675 2662 2667 2656 2652 2667 2649 2648 2672 2671 2675 2651 2655 2658 2670 2681 2660 2676 2671 2680 2651 2661 2673 2662 2668 2651 2646 2668 2657 2663 2671 2669 2673 2660 2642 2660 2696 2671 2659 2660 2665 2676 2681 2650 2646 2670 2655 2669 2642 2665 2652 2670 2673 2691 2640 2666 2660 2681 2664 2656 2670 2649 2652 2657 2676 2658 2656 2665 2648 2646 2667 2627 2670 2655 2677 2673 2664 2659 2654 2664 2636 2654 2658 2665 2655 2675 2656 2652 2647 2654 2684 2661 2662 2667 2655 2653 2659 2657 2667 2665 2655 2655 2659 2677 2661 2661 2652 2664 2680 2646 2670 2677 2669 2647 2675 2667 2656 2678 2670 2682 2665 2663 2651 2675 2672 2657 2661 2671 2667 2658 2670 2672 2675 2662 2672 2669 2696 2678 2659 2702 2668 2713

Tree=0
num_leaves=31
num_cat=0
split_feature=86 1974 842 0 1719 903 119 110 1414 177 774 887 955 710 255 1813 26 1799 1978 1803 1926 1402 50 729 332 309 311 1927 566 1717
split_gain=104.238 94.3231 51.6857 54.0991 42.1531 40.9641 38.2111 36.4331 35.9596 31.4541 30.8649 26.8703 26.5668 24.8058 25.8335 24.7842 24.6614 23.657 23.6515 25.952 23.65 22.6342 22.0919 21.8799 21.7559 21.6562 21.2582 20.6204 20.3741 20.3587
threshold=0.11966109648346902 0.016179606318473819 0.0064782511908561 0.0034634466283023362 0.020323107019066814 0.0014449790469370785 0.031788848340511329 0.01015595765784383 0.0071001853793859482 -0.00058917910791933526 0.0094302375800907629 0.0035526599967852239 0.0034774186788126831 0.0065943317022174605 0.0030287374975159769 0.076888486742973342 0.0030688081169500951 0.02206651866436005 0.0013153390027582648 0.022872744128108028 0.0013647659216076138 0.017520612105727199 0.089755270630121245 -0.03495506010949611 -0.0041517694480717173 -0.03572003357112407 0.00079983766772784304 0.0066361986100673684 0.039653681218624122 0.018247843720018867
decision_type=2 2 2 2 2 2 2 2 2 2 2 2 2 2 2 2 2 2 2 2 2 2 2 2 2 2 2 2 2 2
left_child=1 2 3 4 17 29 10 -8 11 -7 12 24 -2 23 -15 21 -11 25 -18 26 28 -6 -22 -10 -4 -1 -20 -25 -14 -3
right_child=6 5 8 -5 15 9 7 -9 13 16 -12 -13 20 14 -16 -17 18 -19 19 -21 22 -23 -24 27 -26 -27 -28 -29 -30 -31
leaf_value=0.088131425422950077 -0.070380659627797229 -0.044560102873333222 0.07819336366428252 0.051302137729064473 -0.026189411674255557 0.10676529122045172 -0.0091753404330943162 0.11754863578021804 -0.1306014915538769 -0.12380351952351823 0.06062281541644441 0.0026879695218534529 -0.11928907679747505 -0.0075224190042250238 0.11975253101871042 -0.11638507969292029 -0.070814663590675758 -0.037957733140144376 -0.061690031662795762 0.11781310320883712 0.10359063260309959 0.089386489923400342 -0.04085633448642241 -0.04628278584398942 -0.086311673780327933 -0.10811125985265627 0.043815375963009454 0.0649426146527258 0.076350013499368388 0.082134319189271374
leaf_count=23 210 405 35 153 225 238 121 363 52 43 361 333 68 104 165 79 79 276 96 150 144 97 60 129 396 1022 374 138 31 58
internal_value=0 -0.138111 -0.328183 -0.543118 -0.644382 0.28695 0.49143 0.942259 -0.0301038 0.518571 0.241772 -0.316255 -0.0735144 0.341698 0.789041 -0.0764311 0.315641 -0.816788 0.406076 0.5374 0.305393 0.169852 0.694645 -0.0355295 -0.645945 -0.954338 0.306236 0.195628 -0.496701 -0.203308
internal_count=6028 4670 3227 1875 1722 1443 1358 484 1352 980 874 764 513 588 269 401 742 1321 699 620 303 322 204 319 431 1045 470 267 99 463
shrinkage=1


Tree=1
num_leaves=31
num_cat=0
split_feature=5 214 1530 1867 1863 121 1974 1911 1735 218 1740 1342 1802 1906 2046 1895 1982 582 662 1914 779 1863 1999 151 1529 1846 2046 489 1357 806
split_gain=93.8942 89.2825 56.7962 49.5672 37.1571 36.5857 38.5067 32.2222 28.2171 28.1131 26.9689 25.6544 22.9662 22.948 22.9471 22.6953 22.5793 22.2648 21.5134 21.1682 20.6338 20.2514 19.5072 19.3771 18.8667 19.6203 22.9118 21.4315 18.7956 19.2212
threshold=0.0037530349800363187 0.11632572486996652 0.018879447132349018 0.018864920362830166 0.02747927978634835 -0.0035690573276951905 0.013581759296357633 0.020668961107730869 0.016013092361390594 0.12483311817049982 -0.0031627222197130318 0.0032963358098641042 0.00090139929670840513 0.0039281807839870462 0.0028654251946136364 0.03203959949314595 0.0055920386221259841 0.050786715000867851 0.0085039958357811009 0.008997326251119377 0.0053878510370850563 0.0012365491129457955 0.011175205931067468 0.0048936335369944581 -0.0072379622142761937 0.027859875932335857 0.0022358973510563378 0.073477949947118773 0.0060323623474687347 0.0088830315507948416
decision_type=2 2 2 2 2 2 2 2 2 2 2 2 2 2 2 2 2 2 2 2 2 2 2 2 2 2 2 2 2 2
left_child=1 2 3 5 12 13 8 15 17 11 -10 -3 -5 -1 18 28 -8 -7 -9 24 -17 -18 -14 -13 -2 26 -26 -28 29 -4
right_child=19 9 7 4 -6 6 16 14 10 -11 -12 23 22 -15 -16 20 21 -19 -20 -21 -22 -23 -24 -25 25 -27 27 -29 -30 -31
leaf_value=-0.049355326203269489 0.14647510930074586 -0.03786475035831121 -0.064993862054884097 -0.091345474327818352 0.073109118775393417 -0.10694601661018784 -0.058503144712933566 0.16521214057449729 0.10564840096198432 0.073461075113011268 -0.053034778896164605 -0.088578070060387745 -0.047635506946087466 0.083284550912274213 0.098872633281320427 -0.07127715831602191 -0.046070664877235601 -0.017506838463701119 -0.056329533908427647 0.10686839908612936 0.012437870440361105 0.060374259427934784 0.047222424123913649 0.058365596073769413 -0.095729293892838643 0.095967639153266004 0.065990332919950809 -0.10433581453362369 -0.064136087999487459 0.077946804404809583
leaf_count=92 56 256 45 143 234 915 290 22 50 534 303 40 160 121 244 276 116 127 87 312 206 187 190 355 81 103 148 37 66 232
internal_value=0 -0.0898896 -0.229569 -0.378897 0.0742522 -0.528577 -0.613048 0.141568 -0.794721 0.394148 -0.305593 0.114932 -0.237511 0.259866 0.647665 -0.0749672 -0.185868 -0.960435 -0.115981 0.672742 -0.35502 0.196206 0.0386142 0.434823 0.382063 0.217764 -0.0694185 0.319281 0.31857 0.547268
internal_count=6028 5291 4106 2928 727 2201 1988 1178 1395 1185 353 651 493 213 353 825 593 1042 109 737 482 303 350 395 425 369 266 185 343 277
shrinkage=0.1


Tree=2
num_leaves=31
num_cat=0
split_feature=774 5 177 1591 32 796 1467 1607 140 1654 187 827 1637 22 1457 1974 1845 208 1 1782 948 730 958 587 1559 1743 2015 1990 458 1619
split_gain=82.1015 60.3622 47.9976 45.4241 37.2727 37.1633 32.4987 32.232 29.1068 28.364 28.0664 26.6892 26.6623 25.0124 23.9765 22.3491 21.9385 22.8164 21.7343 21.6792 21.1553 20.8147 23.6371 22.1913 20.1928 20.7632 20.1497 20.1195 21.1165 19.7326
threshold=0.011756089981645347 0.0067289129365235576 -0.0030122946482151742 0.02068212348967791 0.0021399462129920725 -0.010625445283949373 0.017537923529744152 0.006487080594524742 -0.0070016810204833737 0.0089852567762136477 0.013560073915868999 0.0021499306894838814 0.0072333447169512519 0.0078274584375321882 0.0096961394883692282 0.00040832259401213383 0.0049377535469830045 0.0044050789438188085 -0.018516265787184235 0.031651772558689124 -4.4689875267067683e-06 0.12666110694408417 0.0017870096489787104 0.028499375097453598 0.048630502074956901 0.047894166782498367 0.0014615182881243529 0.0024191192351281647 0.00065257219830527912 0.22513639926910403
decision_type=2 2 2 2 2 2 2 2 2 2 2 2 2 2 2 2 2 2 2 2 2 2 2 2 2 2 2 2 2 2
left_child=1 2 10 4 6 -2 8 11 -4 12 24 18 15 -9 -10 -5 17 -8 -7 -16 -6 22 23 -13 -1 -26 -15 -20 -29 -22
right_child=5 -3 3 9 20 7 16 13 14 -11 -12 21 -14 26 19 -17 -18 -19 27 -21 29 -23 -24 -25 25 -27 -28 28 -30 -31
leaf_value=0.062311302638406257 0.10596176458259675 0.070570714887748673 0.056554150776250367 -0.089423878263863457 -0.032821278167305241 -0.13025693964509835 -0.049931352363054571 -0.023123175645367301 -0.093157881401290971 0.051461197844316145 0.10543568486093012 -0.12682181881283794 -0.098498651557090811 -0.040365641543926252 -0.057280143569045552 0.031988598255003643 0.070870233359129689 0.097881225851202167 -0.083700829767377041 0.070283895043099259 0.10621383507014147 0.085736780889293124 0.029398157626656391 0.075195104731215323 -0.085287302413454377 0.065943826775695907 0.074727934529710591 -0.11188773953805389 0.069474242035791792 -0.062428667267653427
leaf_count=127 244 295 67 78 176 93 390 158 1076 346 157 88 137 67 266 279 98 47 107 67 123 155 302 29 128 51 690 33 118 36
internal_value=0 -0.167023 -0.23746 -0.325065 -0.46826 0.324739 -0.571362 0.227284 -0.724761 0.0747833 0.365532 -0.0365075 -0.233484 0.493979 -0.786145 0.0549753 -0.148266 -0.340402 -0.471751 -0.31619 0.150613 0.22972 -0.00232921 -0.766872 0.0120278 -0.421789 0.645368 -0.172494 0.298613 0.680245
internal_count=6028 3944 3649 3186 2346 2084 2011 1840 1476 840 463 925 494 915 1409 357 535 437 351 333 335 574 419 117 306 179 757 258 151 159
shrinkage=0.1


Tree=3
num_leaves=31
num_cat=0
split_feature=454 502 1530 1802 822 510 252 23 494 1474 1866 1546 1702 333 1991 571 1613 1414 313 902 1147 952 1697 190 265 1251 536 475 1079 1670
split_gain=74.8544 60.3098 49.8062 48.3474 35.0091 34.2806 31.5469 28.1905 24.9165 24.5627 21.6725 21.6016 21.0705 21.0494 20.4233 20.0251 19.9747 19.8365 19.4406 19.3009 18.8028 18.7255 18.545 21.0306 18.4833 18.4588 18.3571 18.1572 17.9645 17.9524
threshold=0.0047859549522399911 0.0078481542877852934 0.0084638446569442766 0.0073607636149972695 0.0052083297632634648 0.0019679060205817231 -0.0010062857181765137 0.0079022012650966662 0.053202869370579726 0.0061574862338602552 0.00070481412694789469 0.012637790292501451 0.084015093743801131 0.00011427664139773698 0.00039381891838274902 0.0050015901215374478 -0.017077735625207421 0.0043777169194072494 -0.0022017790470272298 0.024126278236508373 0.0032396133756265049 -0.00075240331352688361 -0.045494815334677689 0.0031572493026033048 0.0012086522765457632 0.086363080888986601 -0.0012231338187120853 0.0067279636859893808 0.013277150690555574 0.024254378862679008
decision_type=2 2 2 2 2 2 2 2 2 2 2 2 2 2 2 2 2 2 2 2 2 2 2 2 2 2 2 2 2 2
left_child=1 11 3 5 6 21 -3 22 -8 12 16 18 -7 -14 -13 -16 -5 -6 -1 25 -10 -2 -4 -24 29 -9 -18 -27 -12 -11
right_child=2 4 7 10 17 9 8 19 20 24 28 14 13 -15 15 -17 26 -19 -20 -21 -22 -23 23 -25 -26 27 -28 -29 -30 -31
leaf_value=-0.0035090638266987413 0.0030817833013164178 0.07664830275556056 -0.12913271921438926 0.092775276407335017 0.0035265549969256552 -0.096428228943708783 -0.073367917845399658 0.073179425517148178 -0.063044729065167532 -0.02096021933701038 0.02931904433140364 -0.086254192629299523 -0.033723571774461149 0.17944616572973221 -0.034839439247501068 0.06236550515281624 0.030378061565646666 0.069431455915159354 -0.078548263122031989 0.10373490862962241 0.068840964162756466 -0.098371220633792847 -0.062569371719073993 0.077032921739580082 0.11679565411143283 -0.11302196145269086 -0.11479275436392417 0.02847111742223643 0.10161315319831316 0.099826818454852737
leaf_count=165 96 102 45 47 359 144 387 443 72 199 374 119 66 26 184 159 58 377 881 345 110 310 78 98 85 42 89 282 220 66
internal_value=0 -0.228401 0.21918 -0.000554715 0.0704314 -0.295432 -0.261184 0.512598 -0.44548 0.0151958 0.370633 -0.507265 -0.484976 0.265085 -0.14597 0.102391 -0.211935 0.372626 -0.666973 0.642839 0.166651 -0.743757 -0.14174 0.15204 0.352921 0.465501 -0.576022 0.101295 0.560873 0.0916551
internal_count=6028 2915 3113 1780 1407 992 671 1333 569 586 788 1508 236 92 462 343 194 736 1046 1112 182 406 221 176 350 767 147 324 594 265
shrinkage=0.1


Tree=4
num_leaves=31
num_cat=0
split_feature=16 774 1082 1482 246 778 10 1653 1467 150 38 188 1074 275 1844 1914 461 168 1931 1926 1978 26 1774 68 458 1147 647 1930 36 335
split_gain=65.1635 58.3967 42.5469 32.4124 32.3235 31.3208 30.5387 28.3596 28.1007 24.1264 21.5921 21.2839 20.9133 20.0923 19.7707 19.3843 21.0364 21.8843 18.9097 20.878 18.708 18.3671 19.3361 18.2545 17.9158 17.6404 17.5424 17.4632 17.1061 16.9218
threshold=0.0052600710187107333 0.0098409052006900328 0.0085248611867427843 0.0082293255254626291 0.006689606001600624 0.0073297277558594951 0.00047068220737855887 0.012241767253726723 0.013224483467638494 0.22705094516277316 0.051237331703305251 -0.0050880687776952973 0.001665912277530879 0.0053680837154388436 2.8298426286710314e-06 0.021990109235048298 -0.089291825890541063 0.032933294773101814 0.016653120517730716 0.023669654503464702 0.00051251176046207558 0.0049813711084425458 0.0062130331061780461 0.0035263259196653966 0.023284184746444229 0.071859788149595274 0.008321425877511503 0.017025792971253399 -0.041738890111446374 0.00054367139819078158
decision_type=2 2 2 2 2 2 2 2 2 2 2 2 2 2 2 2 2 2 2 2 2 2 2 2 2 2 2 2 2 2
left_child=1 2 8 5 7 14 10 11 9 18 -2 -4 24 -8 -3 16 -7 -18 25 -20 -10 -5 -23 -14 -6 -1 -27 -13 -21 -9
right_child=6 3 4 21 12 15 13 29 20 -11 -12 27 23 -15 -16 -17 17 -19 19 28 -22 22 -24 -25 -26 26 -28 -29 -30 -31
leaf_value=-0.087539595990949265 -0.093093068694341086 -0.072504145703136874 0.10550985251170762 -0.028554797116121602 -0.068761802742949282 -0.11695973629093144 0.0062649702916879298 -0.095521363409900958 -0.069628593670611846 0.080643984910401825 0.043772833831041059 -0.072880908929654709 0.045427355208466524 0.096932669386020562 0.0098495482480388287 0.092106276669015663 0.060805784570069736 -0.051675892927787487 -0.053955760639491201 -0.11364333241112962 0.011978808397674134 -0.00446176565580604 0.074833355750509756 0.17180349282754404 0.076897088583138151 -0.067596713210548387 0.092072463192641729 0.0081648707577668799 0.09359882536249603 0.1102391089214194
leaf_count=864 82 302 37 110 112 49 126 20 148 49 108 415 404 460 193 147 217 103 264 20 487 155 627 52 49 70 46 145 82 85
internal_value=0 -0.0778575 -0.237652 0.203346 0.0434016 -0.0430314 0.546745 -0.251748 -0.420332 -0.580089 -0.153861 -0.421253 0.37888 0.774168 -0.404097 0.303637 0.0577048 0.245453 -0.630538 -0.240947 -0.0701065 0.482716 0.591053 0.59869 -0.243841 -0.776384 -0.0406212 -0.518874 0.530344 0.711677
internal_count=6028 5252 3349 1903 1319 1011 776 702 2030 1395 190 597 617 586 495 516 369 320 1346 366 635 892 782 456 161 980 116 560 102 105
shrinkage=0.1


Tree=5
num_leaves=31
num_cat=0
split_feature=1803 1975 1543 9 502 441 1531 1799 0 1286 1418 125 950 1458 1930 1847 83 28 280 1034 1466 1453 182 1113 1305 106 946 1093 134 1505
split_gain=63.3301 49.159 35.1437 33.8413 30.8611 29.6635 29.4346 27.6035 25.954 25.7933 25.2778 24.7225 24.2732 24.9651 22.0143 19.5048 18.5459 19.8496 18.738 18.3295 17.8417 17.3542 17.3474 16.8231 16.8334 16.4666 16.4478 18.776 16.3603 16.1021
threshold=0.0096040372736752033 0.013909998349845411 0.038501169532537467 0.0019452682463452222 0.0057436677161604175 -0.005517122568562626 0.018299523741006855 0.0170555878430605 0.00034547946415841585 0.0042687735985964545 0.017904167994856838 0.00011497876403154807 0.0060747228562831887 0.0054218790028244266 0.0112092811614275 0.0070234173908829689 0.06155830621719361 0.14302729815244677 -0.0068021141923964015 0.0075855851173400888 0.0054856571368873128 -0.063800074160099016 0.025939462706446651 0.22430218011140826 -0.14557068794965741 0.0067511312663555154 0.0052249480504542598 0.00051706051453948032 0.11212704703211786 2.9753753551631238e-05
decision_type=2 2 2 2 2 2 2 2 2 2 2 2 2 2 2 2 2 2 2 2 2 2 2 2 2 2 2 2 2 2
left_child=1 2 5 4 7 -1 9 -2 14 -3 12 -9 13 -6 -7 28 18 -18 -4 -17 -11 -14 -10 24 -5 -23 27 -8 -16 -13
right_child=3 6 16 23 10 8 26 11 22 20 -12 29 21 -15 15 19 17 -19 -20 -21 -22 25 -24 -25 -26 -27 -28 -29 -30 -31
leaf_value=0.024271114441605231 -0.041893122612989504 -0.038686930493338795 0.087930351644466831 -0.016875144258312488 -0.089931154212103195 -0.079826151344548749 -0.040644267406797198 0.085114355110282591 -0.032478791520401597 -0.0095286011943877466 0.087496396079121685 0.034297055309136973 -0.058260431618213183 0.026431556343494353 -0.07777320487421463 -0.034878581292427352 0.098211104677809927 -0.083603021317565002 -0.045161175395566383 0.093285559700014231 0.075464603539137975 -0.043581965148641252 0.059713753924298313 -0.035582326133197693 0.1075828625174225 0.096465651832239041 0.09948145570677204 0.097441753274015053 0.093331110218499755 -0.084503197691708068
leaf_count=235 533 433 55 51 132 1050 99 173 297 204 302 100 46 172 238 98 152 29 194 84 196 40 115 48 331 227 216 67 25 86
internal_value=0 -0.168544 -0.326476 0.258634 0.138288 -0.432054 0.164919 -0.128398 -0.515399 -0.0468332 0.39728 0.303196 0.16383 -0.2412 -0.638878 -0.263531 0.199029 0.690201 -0.157283 0.243023 0.321566 0.557419 -0.0676858 0.767637 0.909384 0.754547 0.628265 0.151407 -0.614587 -0.206229
internal_count=6028 3787 2572 2241 1811 2142 1215 892 1907 833 919 359 617 304 1495 445 430 181 249 182 400 313 412 430 382 267 382 166 263 186
shrinkage=0.1


Tree=6
num_leaves=31
num_cat=0
split_feature=1994 1414 1606 26 1658 566 117 1803 758 102 775 1804 1274 1178 265 1803 1783 181 1615 952 1958 1414 803 154 437 481 1005 483 759 1273
split_gain=59.6054 48.1358 33.678 32.8257 34.2819 31.4118 27.4619 29.3053 23.8128 23.7243 21.3876 21.6904 21.1636 20.6792 19.8405 19.3753 18.8167 18.8147 18.4735 18.2803 18.5928 17.7943 17.4472 17.0239 16.8703 16.7591 16.5006 16.4272 16.3989 16.6875
threshold=0.0095539209432899969 0.0049927278887480506 0.016599454917013649 0.0042969088535755881 0.021525560878217224 0.0082255490124225634 0.014084800612181427 0.010214768350124361 0.0063207335770130166 0.0064122395124286422 0.011166892945766451 0.0017621826846152546 0.0085152275860309618 0.16117808222770694 0.0045630584936589011 0.017494457773864273 0.0016075961757451298 -0.0017741590272635219 0.01123509416356683 -0.02272500749677419 0.07465671002864839 0.11807971820235254 0.12695748358964923 0.016492093913257126 -0.014642624650150536 0.0003753277705982328 0.0036738143535330896 0.25324545800685888 0.0022623321274295458 -0.012538734357804058
decision_type=2 2 2 2 2 2 2 2 2 2 2 2 2 2 2 2 2 2 2 2 2 2 2 2 2 2 2 2 2 2
left_child=1 6 3 -2 12 8 7 9 -3 -1 11 -10 15 17 -8 24 -6 -7 21 -19 -21 27 25 26 -5 -17 -9 -4 -14 -30
right_child=2 5 18 4 16 13 14 23 10 -11 -12 -13 28 -15 -16 22 -18 19 -20 20 -22 -23 -24 -25 -26 -27 -28 -29 29 -31
leaf_value=-0.093516816152209511 -0.082801579126158986 -0.042766242807625032 0.060794625045882525 0.0852363394028572 -0.0013625524071226025 0.092541090745076604 -0.087009608561814902 -0.08928358971107507 0.039289697500794904 -0.022887434280379301 0.079586115892202255 -0.077672136286614721 -0.020895496813767442 0.10856929692928821 0.041252277042143959 0.061466736343134293 0.093515919757895166 0.13954466507937488 0.096814133905024469 -0.049861822431282746 0.037268781750833931 -0.10750845082806437 0.11847458654352927 0.048376086290245236 -0.063146016470169958 -0.078894248172809059 0.046999598353881053 -0.053396037662964413 -0.039861902525081795 0.086215020224887334
leaf_count=271 149 555 356 34 120 124 530 91 140 683 158 120 153 145 54 65 293 37 313 214 187 34 58 292 386 74 60 60 53 219
internal_value=0 -0.170152 0.240861 0.074962 0.167242 0.0812495 -0.383244 -0.229711 -0.153822 -0.428841 0.21011 -0.145787 -0.0276492 0.405419 -0.75104 -0.266421 0.659396 0.22998 0.590278 0.0335693 -0.0913993 0.32889 0.255369 0.199225 -0.511483 -0.132329 -0.350789 0.443529 0.318545 0.616023
internal_count=6028 3661 2367 1604 1455 1680 1981 1397 973 954 418 260 1042 707 584 617 413 562 763 438 401 450 197 443 420 139 151 416 425 272
shrinkage=0.1


Tree=7
num_leaves=31
num_cat=0
split_feature=22 1850 1798 5 556 112 1531 1095 19 46 150 0 1394 890 544 1597 1443 1990 481 976 1462 1646 954 1034 656 1038 770 1848 856 1825
split_gain=54.1882 47.8529 48.7058 32.2316 24.5948 23.6951 25.2759 23.4763 23.23 21.6831 19.4836 19.2024 20.6077 18.4877 18.324 18.1049 17.735 17.4927 17.4554 17.1682 21.8977 17.0352 16.8426 16.0119 16.2099 15.8525 17.3718 15.7986 15.7503 15.6799
threshold=0.0080774817615747469 0.01042927196249366 0.0094388634897768515 0.00018220284255221489 -0.0019525939715094862 -9.672141459304838e-05 0.043781781569123275 0.014666210394352676 0.031524762511253364 0.01404987368732691 0.0070421071723103532 -0.0031274928478524085 0.25607453286647802 0.0001919055939652026 0.0052928300574421891 0.00082359800580888997 0.0012094068224541845 0.0098877926357090491 -0.022128065116703507 -0.29694613814353937 0.033261479809880264 0.28449992835521704 0.015041460748761894 0.010289167519658806 0.0082018454559147375 0.012610765639692547 0.12044338881969453 -3.6954908864572637e-05 0.00021112421381985771 0.002701607416383923
decision_type=2 2 2 2 2 2 2 2 2 2 2 2 2 2 2 2 2 2 2 2 2 2 2 2 2 2 2 2 2 2
left_child=5 2 4 7 25 6 23 8 18 10 -4 12 14 28 -6 -13 -5 27 -3 -7 -21 -17 -11 -1 -25 26 -2 -8 -9 -20
right_child=1 3 9 16 11 19 17 13 -10 22 -12 15 -14 -15 -16 21 -18 -19 29 20 -22 -23 -24 24 -26 -27 -28 -29 -30 -31
leaf_value=-0.096518002980792258 -0.038270825831646933 -0.063969898576474588 -0.087047829006949462 -0.060899393265506099 -0.079470341985642831 0.08231192378183827 0.082280896872853837 0.057903016892048013 -0.031348738358964033 0.027407754057540781 0.015837827979260151 -0.038449080854042909 0.068178443671267366 0.074051433453132004 0.042948027755821128 0.0076281995803706209 0.080700764025147781 0.11630492243350073 0.020546013802075904 -0.043165127609251182 0.054910476286484371 0.15736354054744711 0.097732739756211828 -0.049709199041208019 0.12229210192258894 0.071341081382440982 0.14165292929213674 -0.089312521469330788 -0.15088722548217584 0.12445573861537779
leaf_count=450 178 54 96 39 652 80 33 29 495 394 347 427 47 338 54 187 599 49 146 368 124 37 217 197 25 146 25 65 30 100
internal_value=0 0.097269 -0.0685313 0.352141 -0.274876 -0.357764 -0.578721 0.156288 -0.0442337 0.275508 -0.0648327 -0.394191 -0.614325 0.557937 -0.700727 -0.140303 0.720872 0.179576 0.399517 -0.0427032 -0.184025 0.324382 0.523193 -0.745329 -0.30131 0.205775 -0.160375 -0.313967 -0.485274 0.628291
internal_count=6028 4637 2807 1830 1753 1391 819 1192 795 1054 443 1404 753 397 706 651 638 147 300 572 492 224 611 672 222 349 203 98 59 246
shrinkage=0.1


Tree=8
num_leaves=31
num_cat=0
split_feature=1606 389 1614 1803 694 2043 9 2035 777 647 1674 91 1996 1545 1659 1914 1887 1849 86 185 1601 259 7 295 1928 1123 1559 1985 30 1750
split_gain=48.8237 47.6223 42.202 37.1977 28.2684 26.7721 25.5949 25.0572 22.0295 21.6339 21.3145 21.3022 20.4516 20.9744 19.9532 18.787 23.1255 18.0674 17.6933 19.0557 17.5904 20.2468 17.5804 16.1757 21.1912 16.0313 17.1925 15.9461 15.9273 16.1556
threshold=0.016599454917013649 0.005819429876282812 0.0096568777225911635 0.0096040372736752033 0.0061019021086394796 0.01387624489143491 0.0020452418830245738 0.003264934523031116 0.014116636011749508 0.0032738266745582223 0.14663095027208331 0.0052164681255817422 0.091640450060367598 -0.0099491039291024173 0.0012435859534889462 0.039336599409580238 0.0062499563209712514 0.0090478593483567255 0.16304744780063632 -0.0057099468540400258 0.054059972986578948 0.037853103131055839 4.359530430519954e-05 0.0079252868890762346 0.00014491456386167559 0.0011549092014320197 0.32155311107635504 -0.0022921139607205983 0.004527170443907381 0.25288821756839758
decision_type=2 2 2 2 2 2 2 2 2 2 2 2 2 2 2 2 2 2 2 2 2 2 2 2 2 2 2 2 2 2
left_child=1 3 4 5 15 9 8 -7 11 -1 25 -5 13 -11 -3 -2 -17 18 19 -13 27 -22 -8 24 -16 -4 -27 -6 -21 -30
right_child=2 14 10 6 20 7 22 -9 -10 12 -12 17 -14 -15 23 16 -18 -19 -20 28 21 -23 -24 -25 -26 26 -28 -29 29 -31
leaf_value=-0.072805411088343749 -0.046198826547585968 -0.018638538921512064 -0.068904082257029695 -0.09171052175571888 0.12070842635487329 -0.048951517958867978 -0.095267722715467726 0.026697570193959481 0.088667825470097855 0.040924632211164547 -0.060411904461762533 0.079875973931819916 0.05172477602958471 -0.054553768264187799 -0.16958799701626842 -0.099697717608491915 0.08539948874472636 0.07758370305211644 0.06648422740203784 -0.090448989754391196 -0.079892567099991249 0.090921388617434207 0.08730715823946826 0.091294610463089537 0.096535453362050605 0.096919248004691982 -0.027648413813411734 0.031928218455967473 -0.0065601773221569681 -0.1474723623583746
leaf_count=832 458 134 29 128 124 299 24 450 93 112 49 65 118 599 24 37 107 101 100 160 89 42 209 297 25 531 50 254 452 36
internal_value=0 -0.124731 0.27611 -0.201176 0.0357004 -0.35285 0.0656958 -0.0350904 -0.0591296 -0.496636 0.684321 -0.14325 -0.264902 -0.394625 0.476706 -0.261054 0.375687 -0.0349897 -0.134883 -0.246285 0.387676 -0.252276 0.681412 0.734321 -0.342155 0.788111 0.861687 0.609703 -0.350891 -0.169322
internal_count=6028 4258 1770 3778 1111 2410 1368 749 1135 1661 659 1042 829 711 480 602 144 914 813 713 509 131 233 346 49 610 581 378 648 488
shrinkage=0.1


Tree=9
num_leaves=31
num_cat=0
split_feature=53 566 824 902 1991 1979 1803 214 1542 1606 49 848 2037 1783 838 205 1983 178 392 1007 1707 1478 457 603 918 1823 1458 388 15 1995
split_gain=45.5176 39.522 31.6035 31.1105 29.9609 23.6015 23.5906 22.3237 20.7943 19.9265 18.9279 21.5849 18.5679 23.9521 20.5874 18.4297 18.1049 17.4849 16.8998 17.4293 17.4194 16.7623 16.3744 16.2038 15.8293 17.6388 15.7859 18.2519 18.1 15.634
threshold=-0.004609400872141122 0.0024478891864418988 -0.0026707338402047753 0.014710739720612766 0.0063292260747402915 0.027549894526600841 0.0047515572514384994 0.11091745644807817 0.035329379141330726 0.010173054877668621 -0.0016100430511869488 0.026844942942261699 0.0006505579804070295 0.037112232297658927 0.006165057886391879 -0.00027481482538860286 0.073080319911241545 0.16003391891717914 0.0011773526784963908 0.051074020564556129 0.067644998431205763 0.0034296347294002776 -8.5287524598243164e-06 0.0068110502324998387 0.10236190631985666 0.030782245099544532 0.012340407352894546 4.9876436492013465e-07 0.00072316237492486835 0.00014505647413898262
decision_type=2 2 2 2 2 2 2 2 2 2 2 2 2 2 2 2 2 2 2 2 2 2 2 2 2 2 2 2 2 2
left_child=-1 4 15 6 12 16 8 10 -4 26 -6 18 13 -2 29 22 -5 -11 19 20 -12 -15 -3 -17 25 -9 27 -8 -28 -14
right_child=1 2 3 5 7 -7 9 24 -10 17 11 -13 14 21 -16 23 -18 -19 -20 -21 -22 -23 -24 -25 -26 -27 28 -29 -30 -31
leaf_value=0.051145591461950607 -0.085448451633000508 -0.048155179445080985 -0.053539169910027939 0.020669973978147516 0.082434443561415049 0.083349839520942229 -0.081741504796719683 0.098232982899759139 0.028123083562974494 0.068649685161506643 -0.02459946750640556 0.11409834319903492 -0.11801103378684673 -0.068975706431844433 0.03715953798630147 -0.048595254445612995 -0.0883432494594385 -0.061226143147268763 -0.092407854075362839 -0.056699952125571822 0.10905901886326008 0.084911889159359016 0.051563366962537174 0.094577643006078016 0.11473817251430343 -0.051956302181292019 -0.082901228663734033 0.022805167454796719 0.046994239868433207 -0.014080721852754892
leaf_count=634 626 118 783 565 67 242 209 54 153 262 94 39 97 54 174 36 71 51 183 203 70 64 160 310 100 81 56 103 212 157
internal_value=0 -0.0667188 0.0701893 -0.0249649 -0.287826 0.290229 -0.175654 -0.00689226 -0.401 0.0605791 -0.199033 -0.315386 -0.501433 -0.695958 -0.164882 0.482095 0.0851734 0.474021 -0.419224 -0.167975 0.32303 0.144682 0.0928188 0.794979 0.53187 0.0782244 -0.162195 -0.472946 0.199129 -0.53428
internal_count=6028 5394 3331 2707 2063 878 1829 891 936 893 656 589 1172 744 428 624 636 313 550 367 164 118 278 346 235 135 580 312 268 254
shrinkage=0.1


Tree=10
num_leaves=31
num_cat=0
split_feature=22 0 1414 1719 1994 550 118 306 1986 11 1701 84 1205 1994 1697 20 920 615 431 869 308 1546 2042 1455 567 1460 1484 1340 1230 297
split_gain=44.0601 36.3452 33.3641 29.6208 22.7315 21.9903 20.355 20.9516 18.5182 17.7052 18.7889 19.3123 17.6867 17.5029 18.1298 16.6403 17.0831 16.5195 18.0934 16.5166 16.4151 16.3333 16.1907 17.493 15.9994 15.8451 15.7556 15.3782 15.2505 19.0299
threshold=0.0076669617556035527 0.0010611776961013677 0.0071001853793859482 0.020323107019066814 0.0097524253651499766 0.011518180370330812 0.0024018281837925319 0.0090850689448416233 0.0022552388254553084 0.00040747385355643933 -0.035238511860370629 -0.035186430439352982 -0.0047602099366486064 0.011757475323975088 -0.02056968584656715 -0.064800713211297975 -0.12239917740225791 0.12888276576995852 0.031370747834444053 -0.2040382698178291 0.00089336792007088672 0.020335807465016845 0.033552559092640884 0.0052804115694016227 0.018789199180901054 -0.0095905768685042841 0.027189500629901889 0.0013784999609924853 0.0059803028125315913 0.046712225303053863
decision_type=2 2 2 2 2 2 2 2 2 2 2 2 2 2 2 2 2 2 2 2 2 2 2 2 2 2 2 2 2 2
left_child=13 2 3 4 15 27 26 28 12 21 11 -11 -6 14 -1 -2 -17 -10 -19 -5 22 -3 -16 -24 -18 -13 -7 -4 29 -8
right_child=1 9 5 19 8 6 7 -9 17 10 -12 25 -14 -15 20 16 24 18 -20 -21 -22 -23 23 -25 -26 -27 -28 -29 -30 -31
leaf_value=-0.097291953452475419 -0.087101678845526567 -0.074398874369248413 -0.053839807789003137 -0.10182522174421059 0.074975014307283885 -0.025593456502715863 0.020666307880811086 0.086931871502431493 0.063041258443626499 0.12409118133785307 0.074024620989705456 0.097853031596466244 -0.074556138991997617 0.00041877500277538883 -0.066668822125616256 0.10573383542390394 -0.057502188227492784 -0.13074434825106779 0.039911030958724246 0.03181979584755696 0.034662671026980701 0.12244557542400653 -0.14132574400213629 0.068202599853336099 0.0089929367015586063 -0.072290846329648703 0.067908717486119444 0.02815604367967511 0.056804974464605695 -0.12466559707916831
leaf_count=241 308 81 221 41 41 290 126 422 236 40 618 29 163 437 394 36 504 45 60 574 124 22 21 79 213 110 101 166 232 53
internal_value=0 0.0971802 0.0108107 -0.151009 -0.296698 0.234269 0.368579 0.549151 0.041315 0.466886 0.570868 -0.0114986 -0.444227 -0.326955 -0.496322 -0.470555 -0.307879 0.331607 -0.340774 0.228916 -0.312087 -0.323043 -0.479434 0.248711 -0.376767 -0.370794 -0.014772 -0.188219 0.221782 -0.223828
internal_count=6028 4732 3832 2221 1606 1611 1224 833 545 900 797 179 204 1296 859 1061 753 341 105 615 618 103 494 100 717 139 391 387 411 179
shrinkage=0.1


Tree=11
num_leaves=31
num_cat=0
split_feature=121 903 1803 244 452 331 1605 1001 928 1914 1223 758 1230 1658 1218 312 256 1685 1101 114 1334 1566 890 1414 935 1171 1890 1674 1727 1974
split_gain=40.8096 43.7465 33.4795 22.655 22.1455 20.8312 24.2317 19.9037 19.8682 21.9228 19.5703 19.6137 19.9637 18.8183 21.1291 17.8574 19.8557 17.841 17.4067 17.3363 16.5526 18.2987 15.764 15.5364 15.5396 15.4916 15.4551 17.6586 14.6952 15.4177
threshold=-0.0022651930339634414 0.039581360295414932 0.0052323513664305219 0.0034387802006676797 0.011394354514777662 0.0014624657924287023 -0.013993800617754458 0.15969526022672656 -1.8695441212912552e-05 0.024407199583947662 0.018997273407876495 0.0064979908056557187 0.014433122240006925 0.0063440734520554551 4.2225894503644674e-05 -0.0013054937007836995 0.0012059130822308364 -0.013771903701126574 -0.090349052101373659 0.22099248319864276 0.0012419882114045324 0.043555328622460372 0.0016635046340525152 0.011601867619901897 0.19023743271827701 0.20732678472995761 0.0033340131631121044 0.0097249061800539511 0.0048760368954390296 0.00186059920815751
decision_type=2 2 2 2 2 2 2 2 2 2 2 2 2 2 2 2 2 2 2 2 2 2 2 2 2 2 2 2 2 2
left_child=17 2 3 10 5 6 -4 8 9 23 15 -12 -13 14 -7 18 -17 26 -2 22 21 -19 -16 24 -3 -25 -1 -28 29 -5
right_child=1 7 4 28 -6 13 -8 -9 -10 -11 11 12 -14 -15 19 16 -18 20 -20 -21 -22 -23 -24 25 -26 -27 27 -29 -30 -31
leaf_value=-0.11736585809006601 0.12239210370668595 -0.071705492499346865 0.082896940796588492 -0.14868804517266496 0.083351773083617797 0.10940651563033231 -0.052803927393067357 0.1207107746702214 0.063267936515104817 0.065237572402219099 -0.04304370017403486 -0.0059051665848968756 0.12152889626697064 0.039640578514860032 -0.05329546227223167 -0.077169645080840385 -0.0066120755595843175 -0.077421033926741614 -0.027157286459886961 -0.10602320764185331 0.081360361240352952 0.067542070379621413 0.020107986242980793 0.066887299737774561 0.066584181588685107 -0.071779125349340847 -0.030986334529835114 0.069043214128900243 0.068887291486635333 0.022028583705008837
leaf_count=40 36 239 62 33 137 56 457 94 324 160 258 144 79 566 197 934 203 66 306 88 445 81 318 116 40 47 147 148 139 68
internal_value=0 -0.0661772 -0.160743 -0.332031 0.0392367 -0.022594 -0.365198 0.312567 0.221391 0.00326305 -0.404709 -0.0474347 0.395793 0.122741 -0.11135 -0.521528 -0.645275 0.401024 -0.113148 -0.222065 0.615543 0.0213928 -0.079423 -0.230118 -0.522312 0.269413 0.0242808 0.185362 0.26007 -0.335355
internal_count=6028 5101 4081 2200 1881 1744 519 1020 926 602 1960 481 223 1225 659 1479 1137 927 342 603 592 147 515 442 279 163 335 295 240 101
shrinkage=0.1


Tree=12
num_leaves=31
num_cat=0
split_feature=112 1162 2043 1735 389 1180 1103 1792 1846 1780 1658 49 757 306 181 1790 605 1394 1160 973 1543 2013 1802 772 342 1759 1578 1619 1462 1799
split_gain=36.1878 39.4525 28.9162 23.7903 23.9542 21.8635 21.7395 20.8169 20.8051 19.5932 19.4987 17.5345 17.2126 16.8095 16.0153 22.4087 16.093 15.969 15.9286 15.8654 15.3996 15.221 14.9045 17.3226 15.7619 14.9001 14.5952 15.019 14.4616 14.3503
threshold=0.00042380770901218062 0.010300402529537679 0.013178738299757244 0.016013092361390594 0.0055661096703261146 0.0030563630862161521 0.010168340988457205 -0.0024308569263666864 0.009839245583862068 9.2021375166950761e-05 0.028282420709729198 0.011004519648849966 -0.0018333317711949346 0.0025482171913608913 0.001042545947711915 0.090295039117336287 0.15808860212564471 0.18729748576879504 5.7601151638664319e-05 -0.080416806042194353 0.007069249404594303 -0.16249696165323255 0.017136166803538803 -0.077506352216005311 0.13871197402477267 0.0074408929795026788 0.037108479067683227 0.12909470498561862 6.4201049099210663e-05 0.020755196921527389
decision_type=2 2 2 2 2 2 2 2 2 2 2 2 2 2 2 2 2 2 2 2 2 2 2 2 2 2 2 2 2 2
left_child=1 2 3 4 10 11 17 9 14 -7 22 -3 -9 -10 15 19 -16 -2 28 -4 -13 -12 23 -1 -24 -20 27 -15 -5 -23
right_child=6 5 8 18 -6 7 -8 12 13 -11 21 20 -14 26 16 -17 -18 -19 25 -21 -22 29 24 -25 -26 -27 -28 -29 -30 -31
leaf_value=0.053977402060549379 0.015527845603283789 0.06902057294981287 -0.15079063503507562 -0.15889886963168184 0.028013897029793452 -0.065519283910193973 0.058929419666895577 0.081077934480130662 -0.019147553628940984 0.024093746979380659 0.10931440550833521 -0.05055007322768406 0.0030899705398297929 0.060951142534701831 -0.077471808122178909 0.10437027890545841 0.090106046274218782 -0.094435332998970223 -0.041314103472126912 7.1412990349717557e-05 0.054812861875573639 -0.054245687561757197 -0.051531092684885454 -0.0937863891157657 0.088178988814869907 0.067105192742834344 0.10515244772571374 -0.11566121707722397 -0.016241119118697894 0.067524401859595531
leaf_count=35 583 450 33 34 148 299 618 159 127 156 37 122 478 64 213 81 27 61 74 242 111 207 220 725 40 189 180 29 235 51
internal_value=0 -0.076822 -0.220481 -0.363384 -0.499139 0.165346 0.313958 -0.0145624 0.0638025 -0.348948 -0.587845 0.453155 0.225036 0.424905 -0.178171 0.0970702 -0.586295 0.0503958 0.00658188 -0.180942 -0.0022748 -0.123401 -0.72279 -0.869185 -0.300459 0.365699 0.71036 0.0551826 -0.342248 -0.30203
internal_count=6028 4766 2991 1995 1463 1775 1262 1092 996 455 1315 683 637 400 596 356 240 644 532 275 233 295 1020 760 260 263 273 93 269 258
shrinkage=0.1


Tree=13
num_leaves=31
num_cat=0
split_feature=454 1994 502 1482 1787 694 272 435 918 458 778 1019 959 1914 265 408 513 319 945 1799 414 1037 882 1516 125 851 260 718 1610 1103
split_gain=33.0622 25.4617 24.874 22.1474 21.4904 20.6444 22.1305 21.5491 19.4965 18.6867 18.683 17.8496 17.3719 18.1227 17.2239 17.1855 17.1807 16.3613 17.5141 16.2714 16.1773 16.1447 15.9067 16.6592 15.4464 15.0221 15.9596 14.9629 15.3686 15.1956
threshold=0.0061911982484161862 0.0067205154336988935 0.0026751569239422683 0.0022936316672712569 0.0012469557696022095 0.0068284813314676293 -0.42408443987369532 0.0096352146938443201 0.12858251482248309 0.011623604688793423 0.0065582983661443004 0.010165332816541197 0.0062960458453744659 0.0065527684055268773 4.5709348341915763e-05 -0.0038797494489699598 0.00027853828214574611 0.025137330405414108 -0.00041529802547302092 0.002247434109449387 0.034028094261884696 -0.036037139594554894 0.0030113015091046695 0.0079269055277109163 -0.0066492271143943063 0.016992527060210708 -0.010025387629866598 0.21072087436914447 0.00043799988634418702 0.0087972232140600699
decision_type=2 2 2 2 2 2 2 2 2 2 2 2 2 2 2 2 2 2 2 2 2 2 2 2 2 2 2 2 2 2
left_child=2 5 10 12 22 6 -2 21 24 15 -1 -12 -4 19 16 -3 -9 -6 -19 -14 -21 -7 -5 -24 -8 26 -11 28 -17 -30
right_child=1 9 3 4 17 7 8 14 -10 25 11 -13 13 -15 -16 27 -18 18 -20 20 -22 -23 23 -25 -26 -27 -28 -29 29 -31
